{"learner":{"attributes":{"best_iteration":"99","best_ntree_limit":"100","scikit_learn":"{\"use_label_encoder\": null, \"n_estimators\": 100, \"objective\": \"multi:softprob\", \"max_depth\": null, \"max_leaves\": null, \"max_bin\": null, \"grow_policy\": null, \"learning_rate\": null, \"verbosity\": null, \"booster\": null, \"tree_method\": null, \"gamma\": null, \"min_child_weight\": null, \"max_delta_step\": null, \"subsample\": null, \"sampling_method\": null, \"colsample_bytree\": null, \"colsample_bylevel\": null, \"colsample_bynode\": null, \"reg_alpha\": null, \"reg_lambda\": null, \"scale_pos_weight\": null, \"base_score\": null, \"missing\": NaN, \"num_parallel_tree\": null, \"random_state\": null, \"n_jobs\": null, \"monotone_constraints\": null, \"interaction_constraints\": null, \"importance_type\": null, \"gpu_id\": null, \"validate_parameters\": null, \"predictor\": null, \"enable_categorical\": false, \"feature_types\": null, \"max_cat_to_onehot\": null, \"max_cat_threshold\": null, \"eval_metric\": null, \"early_stopping_rounds\": null, \"callbacks\": null, \"classes_\": [0, 1, 2], \"n_classes_\": 3, \"_estimator_type\": \"classifier\"}"},"feature_names":["SepalLengthCm","SepalWidthCm","PetalLengthCm","PetalWidthCm"],"feature_types":["float","float","float","float"],"gradient_booster":{"model":{"gbtree_model_param":{"num_parallel_tree":"1","num_trees":"300","size_leaf_vector":"0"},"tree_info":[0,1,2,0,1,2,0,1,2,0,1,2,0,1,2,0,1,2,0,1,2,0,1,2,0,1,2,0,1,2,0,1,2,0,1,2,0,1,2,0,1,2,0,1,2,0,1,2,0,1,2,0,1,2,0,1,2,0,1,2,0,1,2,0,1,2,0,1,2,0,1,2,0,1,2,0,1,2,0,1,2,0,1,2,0,1,2,0,1,2,0,1,2,0,1,2,0,1,2,0,1,2,0,1,2,0,1,2,0,1,2,0,1,2,0,1,2,0,1,2,0,1,2,0,1,2,0,1,2,0,1,2,0,1,2,0,1,2,0,1,2,0,1,2,0,1,2,0,1,2,0,1,2,0,1,2,0,1,2,0,1,2,0,1,2,0,1,2,0,1,2,0,1,2,0,1,2,0,1,2,0,1,2,0,1,2,0,1,2,0,1,2,0,1,2,0,1,2,0,1,2,0,1,2,0,1,2,0,1,2,0,1,2,0,1,2,0,1,2,0,1,2,0,1,2,0,1,2,0,1,2,0,1,2,0,1,2,0,1,2,0,1,2,0,1,2,0,1,2,0,1,2,0,1,2,0,1,2,0,1,2,0,1,2,0,1,2,0,1,2,0,1,2,0,1,2,0,1,2,0,1,2,0,1,2,0,1,2,0,1,2,0,1,2,0,1,2,0,1,2],"trees":[{"base_weights":[-4.4042842E-8,1.4354067E0,-7.3349637E-1],"categories":[],"categories_nodes":[],"categories_segments":[],"categories_sizes":[],"default_left":[1,0,0],"id":0,"left_children":[1,-1,-1],"loss_changes":[7.229677E1,0E0,0E0],"parents":[2147483647,0,0],"right_children":[2,-1,-1],"split_conditions":[2.45E0,4.30622E-1,-2.2004892E-1],"split_indices":[2,0,0],"split_type":[0,0,0],"sum_hessian":[6.6666664E1,2.2222221E1,4.4444443E1],"tree_param":{"num_deleted":"0","num_feature":"4","num_nodes":"3","size_leaf_vector":"0"}},{"base_weights":[-4.4042842E-8,-7.177034E-1,3.6674812E-1,1.24E0,-6.6839385E-1,1.3880597E0,-3.2511625E-8,-2.5544848E-8,-7.127072E-1,1.4285715E0,4.285714E-1,-4.2857146E-1,4.285714E-1],"categories":[],"categories_nodes":[],"categories_segments":[],"categories_sizes":[],"default_left":[1,0,1,1,1,1,1,0,0,0,0,0,0],"id":1,"left_children":[1,-1,3,5,7,9,11,-1,-1,-1,-1,-1,-1],"loss_changes":[1.8074192E1,0E0,4.190784E1,4.5898476E0,6.351576E-1,2.558632E-1,8.5714287E-1,0E0,0E0,0E0,0E0,0E0,0E0],"parents":[2147483647,0,0,2,2,3,3,4,4,5,5,6,6],"right_children":[2,-1,4,6,8,10,12,-1,-1,-1,-1,-1,-1],"split_conditions":[2.45E0,-2.1531104E-1,1.75E0,4.95E0,4.8500004E0,1.55E0,1.55E0,-7.663455E-9,-2.1381217E-1,4.2857146E-1,1.2857142E-1,-1.2857145E-1,1.2857142E-1],"split_indices":[2,0,3,2,2,3,3,0,0,0,0,0,0],"split_type":[0,0,0,0,0,0,0,0,0,0,0,0,0],"sum_hessian":[6.6666664E1,2.2222221E1,4.4444443E1,2.3999998E1,2.0444443E1,2.1333332E1,2.6666665E0,1.3333333E0,1.911111E1,1.9999998E1,1.3333333E0,1.3333333E0,1.3333333E0],"tree_param":{"num_deleted":"0","num_feature":"4","num_nodes":"13","size_leaf_vector":"0"}},{"base_weights":[-4.4042842E-8,-6.474821E-1,1.3432835E0,-7.3299754E-1,7.241379E-1],"categories":[],"categories_nodes":[],"categories_segments":[],"categories_sizes":[],"default_left":[1,1,0,0,0],"id":2,"left_children":[1,3,-1,-1,-1],"loss_changes":[5.9722965E1,5.9654484E0,0E0,0E0,0E0],"parents":[2147483647,0,0,1,1],"right_children":[2,4,-1,-1,-1],"split_conditions":[1.6500001E0,4.95E0,4.0298507E-1,-2.1989927E-1,2.1724138E-1],"split_indices":[3,2,0,0,0],"split_type":[0,0,0,0,0],"sum_hessian":[6.6666664E1,4.5333332E1,2.1333332E1,4.3111107E1,2.222222E0],"tree_param":{"num_deleted":"0","num_feature":"4","num_nodes":"5","size_leaf_vector":"0"}},{"base_weights":[-2.4456056E-3,9.8360926E-1,-6.561249E-1],"categories":[],"categories_nodes":[],"categories_segments":[],"categories_sizes":[],"default_left":[1,0,0],"id":3,"left_children":[1,-1,-1],"loss_changes":[4.2016575E1,0E0,0E0],"parents":[2147483647,0,0],"right_children":[2,-1,-1],"split_conditions":[2.45E0,2.9508278E-1,-1.9683747E-1],"split_indices":[2,0,0],"split_type":[0,0,0],"sum_hessian":[6.3184826E1,2.4987392E1,3.8197433E1],"tree_param":{"num_deleted":"0","num_feature":"4","num_nodes":"3","size_leaf_vector":"0"}},{"base_weights":[-6.3496394E-5,-6.3870734E-1,2.824561E-1,8.680481E-1,-5.8938694E-1,9.573847E-1,1.4427034E-2,3.994222E-2,-6.3712835E-1,-3.988513E-1,4.041273E-1],"categories":[],"categories_nodes":[],"categories_segments":[],"categories_sizes":[],"default_left":[1,0,1,1,1,0,1,0,0,0,0],"id":4,"left_children":[1,-1,3,5,7,-1,9,-1,-1,-1,-1],"loss_changes":[1.17989855E1,0E0,2.3658592E1,2.0852833E0,5.906615E-1,0E0,7.4470496E-1,0E0,0E0,0E0,0E0],"parents":[2147483647,0,0,2,2,3,3,4,4,6,6],"right_children":[2,-1,4,6,8,-1,10,-1,-1,-1,-1],"split_conditions":[2.45E0,-1.9161221E-1,1.75E0,4.95E0,4.8500004E0,2.872154E-1,1.55E0,1.1982666E-2,-1.9113852E-1,-1.1965539E-1,1.21238194E-1],"split_indices":[2,0,3,2,2,0,3,0,0,0,0],"split_type":[0,0,0,0,0,0,0,0,0,0,0],"sum_hessian":[6.339404E1,1.9056194E1,4.4337845E1,2.6525667E1,1.7812176E1,2.3902561E1,2.6231065E0,1.2674859E0,1.654469E1,1.2616454E0,1.3614612E0],"tree_param":{"num_deleted":"0","num_feature":"4","num_nodes":"11","size_leaf_vector":"0"}},{"base_weights":[2.5044852E-3,-6.302032E-1,8.4499955E-1,-6.5273935E-1,-8.978903E-3,1.4689633E-1,9.569209E-1,-3.5804206E-1,3.8590077E-1,2.5702134E-1,9.9180037E-1,6.995721E-1,-8.857186E-2],"categories":[],"categories_nodes":[],"categories_segments":[],"categories_sizes":[],"default_left":[1,1,1,0,0,1,1,0,1,0,0,0,0],"id":5,"left_children":[1,3,5,-1,-1,7,9,-1,11,-1,-1,-1,-1],"loss_changes":[3.4813507E1,5.163517E-1,2.0479069E0,0E0,0E0,7.477917E-1,3.2995796E-1,0E0,6.4386195E-1,0E0,0E0,0E0,0E0],"parents":[2147483647,0,0,1,1,2,2,5,5,6,6,8,8],"right_children":[2,4,6,-1,-1,8,10,-1,12,-1,-1,-1,-1],"split_conditions":[4.75E0,1.55E0,1.75E0,-1.958218E-1,-2.693671E-3,4.95E0,4.8500004E0,-1.0741262E-1,1.55E0,7.71064E-2,2.9754013E-1,2.0987163E-1,-2.6571559E-2],"split_indices":[2,3,3,0,0,2,2,0,3,0,0,0,0],"split_type":[0,0,0,0,0,0,0,0,0,0,0,0,0],"sum_hessian":[6.331064E1,3.6300903E1,2.7009733E1,3.4981163E1,1.3197403E0,4.0514607E0,2.2958273E1,1.1415924E0,2.9098682E0,1.4870764E0,2.1471197E1,1.4661707E0,1.4436977E0],"tree_param":{"num_deleted":"0","num_feature":"4","num_nodes":"13","size_leaf_vector":"0"}},{"base_weights":[-4.3828203E-3,7.8768927E-1,-6.044553E-1],"categories":[],"categories_nodes":[],"categories_segments":[],"categories_sizes":[],"default_left":[1,0,0],"id":6,"left_children":[1,-1,-1],"loss_changes":[2.7352558E1,0E0,0E0],"parents":[2147483647,0,0],"right_children":[2,-1,-1],"split_conditions":[2.45E0,2.3630679E-1,-1.813366E-1],"split_indices":[2,0,0],"split_type":[0,0,0],"sum_hessian":[5.5546177E1,2.3807955E1,3.1738222E1],"tree_param":{"num_deleted":"0","num_feature":"4","num_nodes":"3","size_leaf_vector":"0"}},{"base_weights":[-1.0701071E-3,-5.850134E-1,2.3461986E-1,6.879058E-1,-5.3110415E-1,7.498377E-1,-1.2385213E-1,3.3538047E-2,-5.8234805E-1,2.616391E-1,7.7924967E-1,2.2280614E-1,8.0352473E-1],"categories":[],"categories_nodes":[],"categories_segments":[],"categories_sizes":[],"default_left":[1,0,1,1,1,1,0,0,0,0,1,0,0],"id":7,"left_children":[1,-1,3,5,7,9,-1,-1,-1,-1,11,-1,-1],"loss_changes":[8.0289755E0,0E0,1.479241E1,1.427392E0,4.8307228E-1,1.5229511E-1,0E0,0E0,0E0,0E0,1.301651E-1,0E0,0E0],"parents":[2147483647,0,0,2,2,3,3,4,4,5,5,10,10],"right_children":[2,-1,4,6,8,10,-1,-1,-1,-1,12,-1,-1],"split_conditions":[2.45E0,-1.7550403E-1,1.75E0,5.05E0,4.8500004E0,5.05E0,-3.715564E-2,1.0061415E-2,-1.7470442E-1,7.849173E-2,2.25E0,6.684185E-2,2.4105743E-1],"split_indices":[2,0,3,2,2,0,0,0,0,0,1,0,0],"split_type":[0,0,0,0,0,0,0,0,0,0,0,0,0],"sum_hessian":[5.634029E1,1.5774759E1,4.056553E1,2.5545172E1,1.5020359E1,2.3805264E1,1.7399087E0,1.2784963E0,1.3741862E1,1.9149753E0,2.1890287E1,1.340527E0,2.054976E1],"tree_param":{"num_deleted":"0","num_feature":"4","num_nodes":"13","size_leaf_vector":"0"}},{"base_weights":[5.405538E-3,-5.743428E-1,6.7432785E-1,-6.005518E-1,2.4216281E-2,1.2682354E-1,7.620653E-1,-1.9274254E-1,4.0779394E-1,2.1006049E-1,7.906813E-1],"categories":[],"categories_nodes":[],"categories_segments":[],"categories_sizes":[],"default_left":[1,1,1,0,0,1,1,0,0,0,0],"id":8,"left_children":[1,3,5,-1,-1,7,9,-1,-1,-1,-1],"loss_changes":[2.2569506E1,5.0371647E-1,1.2011633E0,0E0,0E0,5.21361E-1,1.9857788E-1,0E0,0E0,0E0,0E0],"parents":[2147483647,0,0,1,1,2,2,5,5,6,6],"right_children":[2,4,6,-1,-1,8,10,-1,-1,-1,-1],"split_conditions":[4.75E0,1.55E0,1.75E0,-1.8016554E-1,7.2648847E-3,5.05E0,4.8500004E0,-5.7822764E-2,1.2233818E-1,6.301815E-2,2.372044E-1],"split_indices":[2,3,3,0,0,2,2,0,0,0,0],"split_type":[0,0,0,0,0,0,0,0,0,0,0],"sum_hessian":[5.619916E1,3.018206E1,2.6017101E1,2.8912733E1,1.2693264E0,3.931157E0,2.2085943E1,1.9861685E0,1.9449885E0,1.4995812E0,2.0586363E1],"tree_param":{"num_deleted":"0","num_feature":"4","num_nodes":"11","size_leaf_vector":"0"}},{"base_weights":[-7.5880764E-3,6.795078E-1,-5.6831634E-1],"categories":[],"categories_nodes":[],"categories_segments":[],"categories_sizes":[],"default_left":[1,0,0],"id":9,"left_children":[1,-1,-1],"loss_changes":[1.87806E1,0E0,0E0],"parents":[2147483647,0,0],"right_children":[2,-1,-1],"split_conditions":[2.45E0,2.0385234E-1,-1.7049491E-1],"split_indices":[2,0,0],"split_type":[0,0,0],"sum_hessian":[4.674374E1,2.0909803E1,2.5833937E1],"tree_param":{"num_deleted":"0","num_feature":"4","num_nodes":"3","size_leaf_vector":"0"}},{"base_weights":[-5.1933393E-4,-5.4535204E-1,2.0472233E-1,5.80741E-1,-4.846366E-1,6.530131E-1,-9.311181E-3,3.0114876E-2,-5.4159015E-1,6.817287E-1,1.5494496E-1,-3.6564437E-1,3.0880675E-1],"categories":[],"categories_nodes":[],"categories_segments":[],"categories_sizes":[],"default_left":[1,0,1,1,1,1,1,0,0,0,0,0,0],"id":10,"left_children":[1,-1,3,5,7,9,11,-1,-1,-1,-1,-1,-1],"loss_changes":[5.615837E0,0E0,9.737753E0,1.0321074E0,4.0976787E-1,2.0113754E-1,5.2228224E-1,0E0,0E0,0E0,0E0,0E0,0E0],"parents":[2147483647,0,0,2,2,3,3,4,4,5,5,6,6],"right_children":[2,-1,4,6,8,10,12,-1,-1,-1,-1,-1,-1],"split_conditions":[2.45E0,-1.6360562E-1,1.75E0,4.95E0,4.8500004E0,1.55E0,1.55E0,9.034463E-3,-1.6247705E-1,2.0451863E-1,4.6483487E-2,-1.0969331E-1,9.2642024E-2],"split_indices":[2,0,3,2,2,3,3,0,0,0,0,0,0],"split_type":[0,0,0,0,0,0,0,0,0,0,0,0,0],"sum_hessian":[4.8222637E1,1.274165E1,3.5480988E1,2.3060137E1,1.2420851E1,2.0448782E1,2.6113563E0,1.2843171E0,1.1136534E1,1.8985447E1,1.4633347E0,1.1612298E0,1.4501264E0],"tree_param":{"num_deleted":"0","num_feature":"4","num_nodes":"13","size_leaf_vector":"0"}},{"base_weights":[7.906538E-3,-5.3273785E-1,5.7290965E-1,-5.6368065E-1,4.5859735E-2,1.1657733E-1,6.514791E-1,-1.5086578E-1,3.3452028E-1,1.7301823E-1,6.7983073E-1],"categories":[],"categories_nodes":[],"categories_segments":[],"categories_sizes":[],"default_left":[1,1,1,0,0,1,1,0,0,0,0],"id":11,"left_children":[1,3,5,-1,-1,7,9,-1,-1,-1,-1],"loss_changes":[1.5289408E1,4.8391485E-1,8.013334E-1,0E0,0E0,3.309455E-1,1.625824E-1,0E0,0E0,0E0,0E0],"parents":[2147483647,0,0,1,1,2,2,5,5,6,6],"right_children":[2,4,6,-1,-1,8,10,-1,-1,-1,-1],"split_conditions":[4.75E0,1.55E0,1.75E0,-1.691042E-1,1.3757921E-2,5.05E0,4.8500004E0,-4.5259736E-2,1.0035609E-1,5.190547E-2,2.0394923E-1],"split_indices":[2,3,3,0,0,2,2,0,0,0,0],"split_type":[0,0,0,0,0,0,0,0,0,0,0],"sum_hessian":[4.8053604E1,2.4585323E1,2.3468283E1,2.3361744E1,1.2235792E0,3.8119853E0,1.9656298E1,1.8498111E0,1.9621742E0,1.4969184E0,1.8159378E1],"tree_param":{"num_deleted":"0","num_feature":"4","num_nodes":"11","size_leaf_vector":"0"}},{"base_weights":[-1.0440376E-2,6.11508E-1,-5.409915E-1],"categories":[],"categories_nodes":[],"categories_segments":[],"categories_sizes":[],"default_left":[1,0,0],"id":12,"left_children":[1,-1,-1],"loss_changes":[1.3269218E1,0E0,0E0],"parents":[2147483647,0,0],"right_children":[2,-1,-1],"split_conditions":[2.45E0,1.8345241E-1,-1.6229746E-1],"split_indices":[2,0,0],"split_type":[0,0,0],"sum_hessian":[3.821019E1,1.7519749E1,2.0690441E1],"tree_param":{"num_deleted":"0","num_feature":"4","num_nodes":"3","size_leaf_vector":"0"}},{"base_weights":[-5.4073206E-4,-5.137964E-1,1.8279877E-1,5.3158027E-1,-4.0517473E-1,6.2315714E-1,-1.7754795E-1,-1.12482406E-1,-5.022085E-1,-4.5160007E-1,2.9530853E-1],"categories":[],"categories_nodes":[],"categories_segments":[],"categories_sizes":[],"default_left":[1,0,1,1,1,0,0,1,0,0,0],"id":13,"left_children":[1,-1,3,5,7,-1,-1,9,-1,-1,-1],"loss_changes":[3.9777577E0,0E0,6.603065E0,1.408351E0,2.8900445E-1,0E0,0E0,7.304125E-1,0E0,0E0,0E0],"parents":[2147483647,0,0,2,2,3,3,4,4,7,7],"right_children":[2,-1,4,6,8,-1,-1,10,-1,-1,-1],"split_conditions":[2.45E0,-1.5413892E-1,1.6500001E0,4.95E0,5.05E0,1.8694715E-1,-5.3264387E-2,2.9E0,-1.5066254E-1,-1.3548003E-1,8.859256E-2],"split_indices":[2,0,3,2,2,0,0,1,0,0,0],"split_type":[0,0,0,0,0,0,0,0,0,0,0],"sum_hessian":[4.027348E1,1.012534E1,3.014814E1,1.89833E1,1.116484E1,1.6919542E1,2.063757E0,3.3174129E0,7.8474274E0,1.7525595E0,1.5648533E0],"tree_param":{"num_deleted":"0","num_feature":"4","num_nodes":"11","size_leaf_vector":"0"}},{"base_weights":[1.0496531E-2,-4.9876207E-1,5.0269234E-1,-5.350286E-1,4.1923843E-2,1.0384596E-1,5.790333E-1,-1.2958682E-1,2.8627867E-1,1.4313957E-1,6.100568E-1],"categories":[],"categories_nodes":[],"categories_segments":[],"categories_sizes":[],"default_left":[1,1,1,0,0,1,1,0,0,0,0],"id":14,"left_children":[1,3,5,-1,-1,7,9,-1,-1,-1,-1],"loss_changes":[1.0559314E1,4.286251E-1,5.918188E-1,0E0,0E0,2.3548043E-1,1.5275383E-1,0E0,0E0,0E0,0E0],"parents":[2147483647,0,0,1,1,2,2,5,5,6,6],"right_children":[2,4,6,-1,-1,8,10,-1,-1,-1,-1],"split_conditions":[4.75E0,1.55E0,1.75E0,-1.6050857E-1,1.2577154E-2,5.05E0,4.8500004E0,-3.8876045E-2,8.58836E-2,4.2941872E-2,1.8301705E-1],"split_indices":[2,3,3,0,0,2,2,0,0,0,0],"split_type":[0,0,0,0,0,0,0,0,0,0,0],"sum_hessian":[4.0126614E1,1.971491E1,2.0411701E1,1.848546E1,1.2294494E0,3.658422E0,1.675328E1,1.7319584E0,1.9264636E0,1.4861503E0,1.5267129E1],"tree_param":{"num_deleted":"0","num_feature":"4","num_nodes":"11","size_leaf_vector":"0"}},{"base_weights":[-1.291582E-2,5.6456035E-1,-5.1899946E-1],"categories":[],"categories_nodes":[],"categories_segments":[],"categories_sizes":[],"default_left":[1,0,0],"id":15,"left_children":[1,-1,-1],"loss_changes":[9.545595E0,0E0,0E0],"parents":[2147483647,0,0],"right_children":[2,-1,-1],"split_conditions":[2.45E0,1.6936812E-1,-1.5569985E-1],"split_indices":[2,0,0],"split_type":[0,0,0],"sum_hessian":[3.0659706E1,1.4265847E1,1.6393858E1],"tree_param":{"num_deleted":"0","num_feature":"4","num_nodes":"3","size_leaf_vector":"0"}},{"base_weights":[-2.0035512E-3,-4.8671153E-1,1.6351601E-1,4.7862774E-1,-3.6782667E-1,5.7501525E-1,-1.573038E-1,-9.566277E-2,-4.7305676E-1,-4.231492E-1,2.6636788E-1],"categories":[],"categories_nodes":[],"categories_segments":[],"categories_sizes":[],"default_left":[1,0,1,1,1,0,0,1,0,0,0],"id":16,"left_children":[1,-1,3,5,7,-1,-1,9,-1,-1,-1],"loss_changes":[2.8261182E0,0E0,4.5741477E0,1.1278007E0,2.5100422E-1,0E0,0E0,6.0329276E-1,0E0,0E0,0E0],"parents":[2147483647,0,0,2,2,3,3,4,4,7,7],"right_children":[2,-1,4,6,8,-1,-1,10,-1,-1,-1],"split_conditions":[2.45E0,-1.4601347E-1,1.6500001E0,4.95E0,5.05E0,1.7250457E-1,-4.719114E-2,2.9E0,-1.4191703E-1,-1.2694477E-1,7.991037E-2],"split_indices":[2,0,3,2,2,0,0,1,0,0,0],"split_type":[0,0,0,0,0,0,0,0,0,0,0],"sum_hessian":[3.3233814E1,7.9659104E0,2.5267902E1,1.5923635E1,9.344269E0,1.3910955E1,2.0126796E0,3.1378112E0,6.2064576E0,1.5588667E0,1.5789443E0],"tree_param":{"num_deleted":"0","num_feature":"4","num_nodes":"11","size_leaf_vector":"0"}},{"base_weights":[1.3992017E-2,-4.6898314E-1,4.481034E-1,-5.116365E-1,4.4817075E-2,8.6664595E-2,5.269705E-1,2.3917009E-1,-1.383267E-1,1.5573555E-1,5.79959E-1,-9.62838E-2,3.259614E-1],"categories":[],"categories_nodes":[],"categories_segments":[],"categories_sizes":[],"default_left":[1,1,1,0,0,1,1,0,0,1,0,0,0],"id":17,"left_children":[1,3,5,-1,-1,7,9,-1,-1,11,-1,-1,-1],"loss_changes":[7.3653874E0,3.8766527E-1,4.812293E-1,0E0,0E0,1.8775262E-1,2.0428324E-1,0E0,0E0,1.702855E-1,0E0,0E0,0E0],"parents":[2147483647,0,0,1,1,2,2,5,5,6,6,9,9],"right_children":[2,4,6,-1,-1,8,10,-1,-1,12,-1,-1,-1],"split_conditions":[4.75E0,1.55E0,1.75E0,-1.5349096E-1,1.3445123E-2,1.55E0,5.95E0,7.175103E-2,-4.1498013E-2,5.05E0,1.739877E-1,-2.8885141E-2,9.778843E-2],"split_indices":[2,3,3,0,0,3,0,0,0,2,0,0,0],"split_type":[0,0,0,0,0,0,0,0,0,0,0,0,0],"sum_hessian":[3.3126984E1,1.56429405E1,1.7484045E1,1.4447763E1,1.1951768E0,3.5076694E0,1.3976376E1,2.0530407E0,1.4546286E0,2.2377625E0,1.1738613E1,1.0772581E0,1.1605043E0],"tree_param":{"num_deleted":"0","num_feature":"4","num_nodes":"13","size_leaf_vector":"0"}},{"base_weights":[-1.6302604E-2,5.293318E-1,-5.0035095E-1],"categories":[],"categories_nodes":[],"categories_segments":[],"categories_sizes":[],"default_left":[1,0,0],"id":18,"left_children":[1,-1,-1],"loss_changes":[6.969123E0,0E0,0E0],"parents":[2147483647,0,0],"right_children":[2,-1,-1],"split_conditions":[2.45E0,1.5879954E-1,-1.501053E-1],"split_indices":[2,0,0],"split_type":[0,0,0],"sum_hessian":[2.438406E1,1.14188385E1,1.2965222E1],"tree_param":{"num_deleted":"0","num_feature":"4","num_nodes":"3","size_leaf_vector":"0"}},{"base_weights":[-3.2741202E-3,-4.6174368E-1,1.4668894E-1,4.3451038E-1,-3.3181867E-1,5.399433E-1,-1.4792028E-1,-7.938287E-2,-4.461254E-1,-3.9524627E-1,2.4795249E-1],"categories":[],"categories_nodes":[],"categories_segments":[],"categories_sizes":[],"default_left":[1,0,1,1,1,0,0,1,0,0,0],"id":19,"left_children":[1,-1,3,5,7,-1,-1,9,-1,-1,-1],"loss_changes":[2.0186899E0,0E0,3.193547E0,9.5542693E-1,2.2090054E-1,0E0,0E0,5.100313E-1,0E0,0E0,0E0],"parents":[2147483647,0,0,2,2,3,3,4,4,7,7],"right_children":[2,-1,4,6,8,-1,-1,10,-1,-1,-1],"split_conditions":[2.45E0,-1.3852312E-1,1.6500001E0,4.95E0,5.05E0,1.6198298E-1,-4.4376086E-2,2.9E0,-1.3383763E-1,-1.1857388E-1,7.438575E-2],"split_indices":[2,0,3,2,2,0,0,1,0,0,0],"split_type":[0,0,0,0,0,0,0,0,0,0,0],"sum_hessian":[2.7376116E1,6.2350793E0,2.1141037E1,1.3258201E1,7.882836E0,1.1287805E1,1.9703957E0,2.9850664E0,4.8977695E0,1.4135706E0,1.5714958E0],"tree_param":{"num_deleted":"0","num_feature":"4","num_nodes":"11","size_leaf_vector":"0"}},{"base_weights":[1.78692E-2,-4.411065E-1,4.006852E-1,-4.9115255E-1,4.753441E-2,1.7307562E-1,5.439089E-1,-1.3849905E-1,3.4968087E-1,1.17267534E-1,4.6174517E-1],"categories":[],"categories_nodes":[],"categories_segments":[],"categories_sizes":[],"default_left":[1,1,1,0,0,1,0,0,1,0,0],"id":20,"left_children":[1,3,5,-1,-1,7,-1,-1,9,-1,-1],"loss_changes":[5.159308E0,3.503549E-1,4.2698336E-1,0E0,0E0,4.688685E-1,0E0,0E0,8.025408E-2,0E0,0E0],"parents":[2147483647,0,0,1,1,2,2,5,5,8,8],"right_children":[2,4,6,-1,-1,8,-1,-1,10,-1,-1],"split_conditions":[4.75E0,1.55E0,5.1499996E0,-1.4734577E-1,1.4260324E-2,1.75E0,1.6317268E-1,-4.1549716E-2,5.95E0,3.5180263E-2,1.3852356E-1],"split_indices":[2,3,2,0,0,3,0,0,0,0,0],"split_type":[0,0,0,0,0,0,0,0,0,0,0],"sum_hessian":[2.7357832E1,1.2372093E1,1.498574E1,1.1218017E1,1.1540767E0,6.640754E0,8.344985E0,2.4804344E0,4.16032E0,2.0191588E0,2.141161E0],"tree_param":{"num_deleted":"0","num_feature":"4","num_nodes":"11","size_leaf_vector":"0"}},{"base_weights":[-2.0260442E-2,5.00683E-1,-4.8348215E-1],"categories":[],"categories_nodes":[],"categories_segments":[],"categories_sizes":[],"default_left":[1,0,0],"id":21,"left_children":[1,-1,-1],"loss_changes":[5.1451955E0,0E0,0E0],"parents":[2147483647,0,0],"right_children":[2,-1,-1],"split_conditions":[2.45E0,1.5020491E-1,-1.4504465E-1],"split_indices":[2,0,0],"split_type":[0,0,0],"sum_hessian":[1.9318583E1,9.054706E0,1.0263877E1],"tree_param":{"num_deleted":"0","num_feature":"4","num_nodes":"3","size_leaf_vector":"0"}},{"base_weights":[-5.0338423E-3,-4.3736845E-1,1.3108544E-1,3.9662874E-1,-2.97719E-1,5.110271E-1,-1.3188985E-1,-6.3240714E-2,-4.2058402E-1,-3.6996698E-1,2.3477054E-1],"categories":[],"categories_nodes":[],"categories_segments":[],"categories_sizes":[],"default_left":[1,0,1,1,1,0,0,1,0,0,0],"id":22,"left_children":[1,-1,3,5,7,-1,-1,9,-1,-1,-1],"loss_changes":[1.4444883E0,0E0,2.2469833E0,7.9143214E-1,1.9585025E-1,0E0,0E0,4.3711668E-1,0E0,0E0,0E0],"parents":[2147483647,0,0,2,2,3,3,4,4,7,7],"right_children":[2,-1,4,6,8,-1,-1,10,-1,-1,-1],"split_conditions":[2.45E0,-1.3121054E-1,1.6500001E0,4.95E0,5.05E0,1.5330814E-1,-3.9566956E-2,2.9E0,-1.2617521E-1,-1.109901E-1,7.0431165E-2],"split_indices":[2,0,3,2,2,0,0,1,0,0,0],"split_type":[0,0,0,0,0,0,0,0,0,0,0],"sum_hessian":[2.2571407E1,4.874898E0,1.769651E1,1.0975074E1,6.721436E0,9.049415E0,1.9256598E0,2.831829E0,3.889607E0,1.2765229E0,1.5553063E0],"tree_param":{"num_deleted":"0","num_feature":"4","num_nodes":"11","size_leaf_vector":"0"}},{"base_weights":[2.2435373E-2,-4.136587E-1,3.6083823E-1,-4.7184882E-1,4.9955312E-2,1.4510445E-1,5.117823E-1,-1.2793915E-1,3.0929622E-1,8.037165E-2,4.2742077E-1],"categories":[],"categories_nodes":[],"categories_segments":[],"categories_sizes":[],"default_left":[1,1,1,0,0,1,0,0,1,0,0],"id":23,"left_children":[1,3,5,-1,-1,7,-1,-1,9,-1,-1],"loss_changes":[3.6375651E0,3.1476498E-1,3.7653565E-1,0E0,0E0,3.5762686E-1,0E0,0E0,9.336349E-2,0E0,0E0],"parents":[2147483647,0,0,1,1,2,2,5,5,8,8],"right_children":[2,4,6,-1,-1,8,-1,-1,10,-1,-1],"split_conditions":[4.75E0,1.55E0,5.1499996E0,-1.4155465E-1,1.4986594E-2,1.75E0,1.535347E-1,-3.8381748E-2,5.95E0,2.4111496E-2,1.2822624E-1],"split_indices":[2,3,2,0,0,3,0,0,0,0,0],"split_type":[0,0,0,0,0,0,0,0,0,0,0],"sum_hessian":[2.2637403E1,9.793849E0,1.28435545E1,8.685885E0,1.1079634E0,6.0944686E0,6.749086E0,2.371524E0,3.7229447E0,1.8391268E0,1.8838179E0],"tree_param":{"num_deleted":"0","num_feature":"4","num_nodes":"11","size_leaf_vector":"0"}},{"base_weights":[-2.4412371E-2,4.7555697E-1,-4.672291E-1],"categories":[],"categories_nodes":[],"categories_segments":[],"categories_sizes":[],"default_left":[1,0,0],"id":24,"left_children":[1,-1,-1],"loss_changes":[3.831913E0,0E0,0E0],"parents":[2147483647,0,0],"right_children":[2,-1,-1],"split_conditions":[2.45E0,1.426671E-1,-1.4016874E-1],"split_indices":[2,0,0],"split_type":[0,0,0],"sum_hessian":[1.5304442E1,7.1536093E0,8.150833E0],"tree_param":{"num_deleted":"0","num_feature":"4","num_nodes":"3","size_leaf_vector":"0"}},{"base_weights":[-6.7258403E-3,-4.126826E-1,1.16685964E-1,3.623007E-1,-2.6574996E-1,4.8600486E-1,-1.172624E-1,-3.550992E-1,2.9326934E-2,-4.4727418E-1,-7.131835E-2],"categories":[],"categories_nodes":[],"categories_segments":[],"categories_sizes":[],"default_left":[1,0,1,1,1,0,0,1,0,0,0],"id":25,"left_children":[1,-1,3,5,7,-1,-1,9,-1,-1,-1],"loss_changes":[1.0366018E0,0E0,1.5906973E0,6.5680707E-1,1.896609E-1,0E0,0E0,1.06600165E-1,0E0,0E0,0E0],"parents":[2147483647,0,0,2,2,3,3,4,4,7,7],"right_children":[2,-1,4,6,8,-1,-1,10,-1,-1,-1],"split_conditions":[2.45E0,-1.23804785E-1,1.6500001E0,4.95E0,3.15E0,1.4580147E-1,-3.517872E-2,6.6E0,8.7980805E-3,-1.3418226E-1,-2.1395506E-2],"split_indices":[2,0,3,2,1,0,0,0,0,0,0],"split_type":[0,0,0,0,0,0,0,0,0,0,0],"sum_hessian":[1.8729548E1,3.8199782E0,1.4909569E1,9.110873E0,5.798695E0,7.231947E0,1.8789264E0,4.2948136E0,1.5038816E0,2.8069592E0,1.4878546E0],"tree_param":{"num_deleted":"0","num_feature":"4","num_nodes":"11","size_leaf_vector":"0"}},{"base_weights":[2.6723806E-2,-3.3390886E-1,3.732311E-1,-4.64324E-1,1.7762771E-1,7.563233E-2,4.7654408E-1,2.823423E-1,-1.7503653E-1],"categories":[],"categories_nodes":[],"categories_segments":[],"categories_sizes":[],"default_left":[1,1,1,0,0,1,0,0,0],"id":26,"left_children":[1,3,5,-1,-1,7,-1,-1,-1],"loss_changes":[2.6063251E0,7.6689506E-1,2.898749E-1,0E0,0E0,2.525543E-1,0E0,0E0,0E0],"parents":[2147483647,0,0,1,1,2,2,5,5],"right_children":[2,4,6,-1,-1,8,-1,-1,-1],"split_conditions":[4.8500004E0,1.6500001E0,1.75E0,-1.392972E-1,5.3288314E-2,1.55E0,1.4296323E-1,8.47027E-2,-5.2510962E-2],"split_indices":[2,3,3,0,0,3,0,0,0],"split_type":[0,0,0,0,0,0,0,0,0],"sum_hessian":[1.885966E1,9.259282E0,9.600377E0,7.451766E0,1.807516E0,2.9203148E0,6.6800623E0,1.5312437E0,1.389071E0],"tree_param":{"num_deleted":"0","num_feature":"4","num_nodes":"9","size_leaf_vector":"0"}},{"base_weights":[-2.7217653E-2,4.5193237E-1,-4.502166E-1],"categories":[],"categories_nodes":[],"categories_segments":[],"categories_sizes":[],"default_left":[1,0,0],"id":27,"left_children":[1,-1,-1],"loss_changes":[2.8610716E0,0E0,0E0],"parents":[2147483647,0,0],"right_children":[2,-1,-1],"split_conditions":[2.45E0,1.3557972E-1,-1.3506499E-1],"split_indices":[2,0,0],"split_type":[0,0,0],"sum_hessian":[1.2112318E1,5.6471434E0,6.465175E0],"tree_param":{"num_deleted":"0","num_feature":"4","num_nodes":"3","size_leaf_vector":"0"}},{"base_weights":[-8.091623E-3,1.0351886E-1,-4.1131335E-1,-3.8730547E-1,2.750514E-1,4.1194102E-1,-6.87345E-2,5.497024E-2,4.618324E-1,-3.4022686E-1,1.8513963E-1],"categories":[],"categories_nodes":[],"categories_segments":[],"categories_sizes":[],"default_left":[1,1,0,0,1,1,1,0,0,0,0],"id":28,"left_children":[1,3,-1,-1,5,7,9,-1,-1,-1,-1],"loss_changes":[7.940303E-1,1.2748319E0,0E0,0E0,5.3975517E-1,1.1558974E-1,3.3537817E-1,0E0,0E0,0E0,0E0],"parents":[2147483647,0,0,1,1,4,4,5,5,6,6],"right_children":[2,4,-1,-1,6,8,10,-1,-1,-1,-1],"split_conditions":[5.1499996E0,2.45E0,-1.2339401E-1,-1.1619165E-1,1.6500001E0,2.35E0,2.9E0,1.6491072E-2,1.3854973E-1,-1.0206806E-1,5.554189E-2],"split_indices":[2,2,0,0,3,1,1,0,0,0,0],"split_type":[0,0,0,0,0,0,0,0,0,0,0],"sum_hessian":[1.5697525E1,1.28765955E1,2.8209298E0,3.0089247E0,9.867671E0,6.915706E0,2.9519644E0,1.1057692E0,5.809937E0,1.2621182E0,1.6898462E0],"tree_param":{"num_deleted":"0","num_feature":"4","num_nodes":"11","size_leaf_vector":"0"}},{"base_weights":[2.9252483E-2,-3.117514E-1,3.394487E-1,-4.4409743E-1,1.3286826E-1,5.7375573E-2,4.542132E-1,2.5939706E-1,-1.7372009E-1],"categories":[],"categories_nodes":[],"categories_segments":[],"categories_sizes":[],"default_left":[1,1,1,0,0,1,0,0,0],"id":29,"left_children":[1,3,5,-1,-1,7,-1,-1,-1],"loss_changes":[1.8848864E0,5.611094E-1,2.7454495E-1,0E0,0E0,2.238741E-1,0E0,0E0,0E0],"parents":[2147483647,0,0,1,1,2,2,5,5],"right_children":[2,4,6,-1,-1,8,-1,-1,-1],"split_conditions":[4.8500004E0,1.6500001E0,1.75E0,-1.3322924E-1,3.986048E-2,1.55E0,1.3626397E-1,7.7819124E-2,-5.211603E-2],"split_indices":[2,3,3,0,0,3,0,0,0],"split_type":[0,0,0,0,0,0,0,0,0],"sum_hessian":[1.5818819E1,7.532834E0,8.285985E0,5.8058367E0,1.7269976E0,2.8300672E0,5.4559174E0,1.4446782E0,1.3853891E0],"tree_param":{"num_deleted":"0","num_feature":"4","num_nodes":"9","size_leaf_vector":"0"}},{"base_weights":[-3.051406E-2,4.2884836E-1,-4.3270668E-1],"categories":[],"categories_nodes":[],"categories_segments":[],"categories_sizes":[],"default_left":[1,0,0],"id":30,"left_children":[1,-1,-1],"loss_changes":[2.1542823E0,0E0,0E0],"parents":[2147483647,0,0],"right_children":[2,-1,-1],"split_conditions":[2.45E0,1.2865451E-1,-1.2981202E-1],"split_indices":[2,0,0],"split_type":[0,0,0],"sum_hessian":[9.655986E0,4.476685E0,5.179301E0],"tree_param":{"num_deleted":"0","num_feature":"4","num_nodes":"3","size_leaf_vector":"0"}},{"base_weights":[-1.0063506E-2,9.6007645E-2,-3.8947195E-1,-3.6125997E-1,2.4732584E-1,3.7618795E-1,-5.2251156E-2,4.3852484E-1,4.35543E-2,-3.1668782E-1,1.7739572E-1],"categories":[],"categories_nodes":[],"categories_segments":[],"categories_sizes":[],"default_left":[1,1,0,0,1,1,1,0,0,0,0],"id":31,"left_children":[1,3,-1,-1,5,7,9,-1,-1,-1,-1],"loss_changes":[6.135818E-1,9.190681E-1,0E0,0E0,3.9038974E-1,1.2266755E-1,2.8490683E-1,0E0,0E0,0E0,0E0],"parents":[2147483647,0,0,1,1,4,4,5,5,6,6],"right_children":[2,4,-1,-1,6,8,10,-1,-1,-1,-1],"split_conditions":[5.1499996E0,2.45E0,-1.1684159E-1,-1.0837799E-1,1.6500001E0,4.95E0,2.9E0,1.3155746E-1,1.306629E-2,-9.5006354E-2,5.321872E-2],"split_indices":[2,2,0,0,3,2,1,0,0,0,0],"split_type":[0,0,0,0,0,0,0,0,0,0,0],"sum_hessian":[1.3317297E1,1.099139E1,2.3259068E0,2.387922E0,8.603468E0,5.8369794E0,2.766489E0,4.6476493E0,1.1893301E0,1.1096799E0,1.6568091E0],"tree_param":{"num_deleted":"0","num_feature":"4","num_nodes":"11","size_leaf_vector":"0"}},{"base_weights":[3.263548E-2,-2.842542E-1,3.1195673E-1,-4.2361835E-1,1.1199119E-1,5.7024486E-2,4.310576E-1,2.4753536E-1,-1.5909675E-1],"categories":[],"categories_nodes":[],"categories_segments":[],"categories_sizes":[],"default_left":[1,1,1,0,0,1,0,0,0],"id":32,"left_children":[1,3,5,-1,-1,7,-1,-1,-1],"loss_changes":[1.3613518E0,4.483207E-1,2.2193033E-1,0E0,0E0,1.9327621E-1,0E0,0E0,0E0],"parents":[2147483647,0,0,1,1,2,2,5,5],"right_children":[2,4,6,-1,-1,8,-1,-1,-1],"split_conditions":[4.8500004E0,1.6500001E0,1.75E0,-1.270855E-1,3.3597358E-2,1.55E0,1.2931728E-1,7.4260615E-2,-4.7729027E-2],"split_indices":[2,3,3,0,0,3,0,0,0],"split_type":[0,0,0,0,0,0,0,0,0],"sum_hessian":[1.337825E1,6.2593565E0,7.118894E0,4.5795827E0,1.6797738E0,2.7377038E0,4.3811903E0,1.3778099E0,1.3598938E0],"tree_param":{"num_deleted":"0","num_feature":"4","num_nodes":"9","size_leaf_vector":"0"}},{"base_weights":[-3.2220315E-2,4.057302E-1,-4.1405737E-1],"categories":[],"categories_nodes":[],"categories_segments":[],"categories_sizes":[],"default_left":[1,0,0],"id":33,"left_children":[1,-1,-1],"loss_changes":[1.6286412E0,0E0,0E0],"parents":[2147483647,0,0],"right_children":[2,-1,-1],"split_conditions":[2.45E0,1.2171906E-1,-1.2421722E-1],"split_indices":[2,0,0],"split_type":[0,0,0],"sum_hessian":[7.7345753E0,3.573431E0,4.1611443E0],"tree_param":{"num_deleted":"0","num_feature":"4","num_nodes":"3","size_leaf_vector":"0"}},{"base_weights":[-1.1571053E-2,9.0091825E-2,-3.680627E-1,-3.3490062E-1,2.249454E-1,3.48169E-1,-3.892404E-2,4.1509083E-1,4.2649426E-2,6.0711745E-2,-1.1707538E-1],"categories":[],"categories_nodes":[],"categories_segments":[],"categories_sizes":[],"default_left":[1,1,0,0,1,1,1,0,0,0,0],"id":34,"left_children":[1,3,-1,-1,5,7,9,-1,-1,-1,-1],"loss_changes":[4.8135614E-1,6.728667E-1,0E0,0E0,2.903462E-1,1.0299885E-1,3.5212588E-2,0E0,0E0,0E0,0E0],"parents":[2147483647,0,0,1,1,4,4,5,5,6,6],"right_children":[2,4,-1,-1,6,8,10,-1,-1,-1,-1],"split_conditions":[5.1499996E0,2.45E0,-1.1041882E-1,-1.0047019E-1,1.6500001E0,4.95E0,5.95E0,1.2452725E-1,1.2794828E-2,1.8213524E-2,-3.5122618E-2],"split_indices":[2,2,0,0,3,2,0,0,0,0,0],"split_type":[0,0,0,0,0,0,0,0,0,0,0],"sum_hessian":[1.1366788E1,9.426001E0,1.9407873E0,1.9131739E0,7.5128264E0,4.903487E0,2.6093392E0,3.7282107E0,1.1752763E0,1.2451013E0,1.364238E0],"tree_param":{"num_deleted":"0","num_feature":"4","num_nodes":"11","size_leaf_vector":"0"}},{"base_weights":[3.4179367E-2,-2.5628626E-1,2.822461E-1,-4.0144655E-1,9.4854124E-2,4.6902865E-2,4.0832168E-1,2.3238607E-1,-1.5600404E-1],"categories":[],"categories_nodes":[],"categories_segments":[],"categories_sizes":[],"default_left":[1,1,1,0,0,1,0,0,0],"id":35,"left_children":[1,3,5,-1,-1,7,-1,-1,-1],"loss_changes":[9.6730584E-1,3.5642216E-1,1.9374347E-1,0E0,0E0,1.7297386E-1,0E0,0E0,0E0],"parents":[2147483647,0,0,1,1,2,2,5,5],"right_children":[2,4,6,-1,-1,8,-1,-1,-1],"split_conditions":[4.8500004E0,1.6500001E0,1.75E0,-1.2043397E-1,2.8456239E-2,1.55E0,1.2249651E-1,6.971582E-2,-4.6801213E-2],"split_indices":[2,3,3,0,0,3,0,0,0],"split_type":[0,0,0,0,0,0,0,0,0],"sum_hessian":[1.1420675E1,5.2454977E0,6.1751776E0,3.6099083E0,1.6355896E0,2.6327279E0,3.5424495E0,1.2995169E0,1.333211E0],"tree_param":{"num_deleted":"0","num_feature":"4","num_nodes":"9","size_leaf_vector":"0"}},{"base_weights":[-3.378103E-2,3.824347E-1,-3.9473525E-1],"categories":[],"categories_nodes":[],"categories_segments":[],"categories_sizes":[],"default_left":[1,0,0],"id":36,"left_children":[1,-1,-1],"loss_changes":[1.2412937E0,0E0,0E0],"parents":[2147483647,0,0],"right_children":[2,-1,-1],"split_conditions":[2.45E0,1.1473041E-1,-1.1842058E-1],"split_indices":[2,0,0],"split_type":[0,0,0],"sum_hessian":[6.257526E0,2.8786495E0,3.3788764E0],"tree_param":{"num_deleted":"0","num_feature":"4","num_nodes":"3","size_leaf_vector":"0"}},{"base_weights":[-1.1769668E-2,8.550522E-2,-3.475064E-1,-3.0876613E-1,2.0517242E-1,3.2142964E-1,-2.4770336E-2,3.9183682E-1,4.1726746E-2,6.928078E-2,-1.04606375E-1],"categories":[],"categories_nodes":[],"categories_segments":[],"categories_sizes":[],"default_left":[1,1,0,0,1,1,1,0,0,0,0],"id":37,"left_children":[1,3,-1,-1,5,7,9,-1,-1,-1,-1],"loss_changes":[3.8494444E-1,4.991211E-1,0E0,0E0,2.1343622E-1,8.559555E-2,3.3599522E-2,0E0,0E0,0E0,0E0],"parents":[2147483647,0,0,1,1,4,4,5,5,6,6],"right_children":[2,4,-1,-1,6,8,10,-1,-1,-1,-1],"split_conditions":[5.1499996E0,2.45E0,-1.0425193E-1,-9.262984E-2,1.6500001E0,4.95E0,5.95E0,1.1755105E-1,1.2518024E-2,2.0784235E-2,-3.1381913E-2],"split_indices":[2,2,0,0,3,2,0,0,0,0,0],"split_type":[0,0,0,0,0,0,0,0,0,0,0],"sum_hessian":[9.877048E0,8.236082E0,1.6409657E0,1.5497767E0,6.6863055E0,4.1767206E0,2.509585E0,3.0165E0,1.1602209E0,1.2129164E0,1.2966685E0],"tree_param":{"num_deleted":"0","num_feature":"4","num_nodes":"11","size_leaf_vector":"0"}},{"base_weights":[3.4172382E-2,-1.2809876E-1,4.0439093E-1,4.2546198E-2,-4.0159667E-1,-1.8534036E-1,2.8817034E-1,-3.0522704E-1,2.8736684E-2,3.6668637E-1,8.1152506E-2],"categories":[],"categories_nodes":[],"categories_segments":[],"categories_sizes":[],"default_left":[1,1,0,1,0,1,1,0,0,0,0],"id":38,"left_children":[1,3,-1,5,-1,7,9,-1,-1,-1,-1],"loss_changes":[7.078647E-1,4.0688646E-1,0E0,3.919047E-1,0E0,1.04899555E-1,2.391079E-2,0E0,0E0,0E0,0E0],"parents":[2147483647,0,0,1,1,3,3,5,5,6,6],"right_children":[2,4,-1,6,-1,8,10,-1,-1,-1,-1],"split_conditions":[5.1499996E0,3.05E0,1.2131728E-1,1.6500001E0,-1.20479E-1,4.95E0,4.8500004E0,-9.156811E-2,8.621005E-3,1.10005915E-1,2.4345754E-2],"split_indices":[2,1,0,3,0,2,2,0,0,0,0],"split_type":[0,0,0,0,0,0,0,0,0,0,0],"sum_hessian":[9.920586E0,7.3520756E0,2.5685093E0,5.0473156E0,2.3047602E0,2.7455056E0,2.3018098E0,1.486987E0,1.2585187E0,1.1096658E0,1.1921442E0],"tree_param":{"num_deleted":"0","num_feature":"4","num_nodes":"11","size_leaf_vector":"0"}},{"base_weights":[-3.6160145E-2,3.5898218E-1,-3.7525657E-1],"categories":[],"categories_nodes":[],"categories_segments":[],"categories_sizes":[],"default_left":[1,0,0],"id":39,"left_children":[1,-1,-1],"loss_changes":[9.559152E-1,0E0,0E0],"parents":[2147483647,0,0],"right_children":[2,-1,-1],"split_conditions":[2.45E0,1.07694656E-1,-1.1257698E-1],"split_indices":[2,0,0],"split_type":[0,0,0],"sum_hessian":[5.1287894E0,2.3415656E0,2.7872236E0],"tree_param":{"num_deleted":"0","num_feature":"4","num_nodes":"3","size_leaf_vector":"0"}},{"base_weights":[-1.1262383E-2,7.710862E-2,-3.184232E-1,-2.4522893E-1,2.0423879E-1,2.9482648E-1,-3.7946004E-2,4.1063033E-2,3.503169E-1],"categories":[],"categories_nodes":[],"categories_segments":[],"categories_sizes":[],"default_left":[1,1,0,0,1,1,0,0,0],"id":40,"left_children":[1,3,-1,-1,5,7,-1,-1,-1],"loss_changes":[2.8843918E-1,3.924499E-1,0E0,0E0,1.5460649E-1,5.4214865E-2,0E0,0E0,0E0],"parents":[2147483647,0,0,1,1,4,4,5,5],"right_children":[2,4,-1,-1,6,8,-1,-1,-1],"split_conditions":[5.1499996E0,5.45E0,-9.552697E-2,-7.356868E-2,1.75E0,2.65E0,-1.1383802E-2,1.231891E-2,1.0509508E-1],"split_indices":[2,0,0,0,3,1,0,0,0],"split_type":[0,0,0,0,0,0,0,0,0],"sum_hessian":[8.721666E0,7.354671E0,1.3669956E0,1.8174871E0,5.5371842E0,3.8716543E0,1.6655296E0,1.0069176E0,2.8647368E0],"tree_param":{"num_deleted":"0","num_feature":"4","num_nodes":"9","size_leaf_vector":"0"}},{"base_weights":[3.3856887E-2,-1.0994069E-1,3.7583312E-1,4.8621938E-2,-3.734405E-1,-1.2248443E-1,3.355557E-1,1.6568354E-1,-3.0008766E-1],"categories":[],"categories_nodes":[],"categories_segments":[],"categories_sizes":[],"default_left":[1,1,0,1,0,1,0,0,0],"id":41,"left_children":[1,3,-1,5,-1,7,-1,-1,-1],"loss_changes":[5.2223516E-1,3.3813274E-1,0E0,3.1928045E-1,0E0,2.688706E-1,0E0,0E0,0E0],"parents":[2147483647,0,0,1,1,3,3,5,5],"right_children":[2,4,-1,6,-1,8,-1,-1,-1],"split_conditions":[5.1499996E0,3.05E0,1.1274994E-1,1.75E0,-1.1203215E-1,2.55E0,1.0066672E-1,4.9705062E-2,-9.0026304E-2],"split_indices":[2,1,0,3,0,1,0,0,0],"split_type":[0,0,0,0,0,0,0,0,0],"sum_hessian":[8.77961E0,6.658353E0,2.1212568E0,4.666022E0,1.9923309E0,3.2820017E0,1.38402E0,1.2770516E0,2.0049503E0],"tree_param":{"num_deleted":"0","num_feature":"4","num_nodes":"9","size_leaf_vector":"0"}},{"base_weights":[-3.7150692E-2,3.3793333E-1,-3.5705715E-1],"categories":[],"categories_nodes":[],"categories_segments":[],"categories_sizes":[],"default_left":[1,0,0],"id":42,"left_children":[1,-1,-1],"loss_changes":[7.5871843E-1,0E0,0E0],"parents":[2147483647,0,0],"right_children":[2,-1,-1],"split_conditions":[2.45E0,1.01380005E-1,-1.0711715E-1],"split_indices":[2,0,0],"split_type":[0,0,0],"sum_hessian":[4.317504E0,1.9614234E0,2.3560805E0],"tree_param":{"num_deleted":"0","num_feature":"4","num_nodes":"3","size_leaf_vector":"0"}},{"base_weights":[-1.2618839E-2,6.5951206E-2,-2.9126886E-1,-2.1825767E-1,1.7599061E-1,2.5465307E-1,-3.0029036E-2,9.50125E-2,3.970667E-1,2.3680052E-1,-1.0536549E-1],"categories":[],"categories_nodes":[],"categories_segments":[],"categories_sizes":[],"default_left":[1,1,0,0,1,1,0,1,0,0,0],"id":43,"left_children":[1,3,-1,-1,5,7,-1,9,-1,-1,-1],"loss_changes":[2.1486744E-1,2.8192857E-1,0E0,0E0,1.0758652E-1,6.6134155E-2,0E0,1.2349306E-1,0E0,0E0,0E0],"parents":[2147483647,0,0,1,1,4,4,5,5,7,7],"right_children":[2,4,-1,-1,6,8,-1,10,-1,-1,-1],"split_conditions":[5.1499996E0,5.45E0,-8.738066E-2,-6.5477304E-2,1.75E0,1.55E0,-9.008711E-3,4.6499996E0,1.1912002E-1,7.104016E-2,-3.160965E-2],"split_indices":[2,0,0,0,3,3,0,2,0,0,0],"split_type":[0,0,0,0,0,0,0,0,0,0,0],"sum_hessian":[7.9367857E0,6.786529E0,1.1502569E0,1.6197085E0,5.1668205E0,3.568307E0,1.5985135E0,2.468437E0,1.09987E0,1.3391099E0,1.129327E0],"tree_param":{"num_deleted":"0","num_feature":"4","num_nodes":"11","size_leaf_vector":"0"}},{"base_weights":[3.484819E-2,-1.9728342E-1,2.1869712E-1,4.288892E-2,-4.0571192E-1,3.0850438E-2,3.4956455E-1,2.3394333E-1,-1.7772688E-1],"categories":[],"categories_nodes":[],"categories_segments":[],"categories_sizes":[],"default_left":[1,1,1,0,0,1,0,0,0],"id":44,"left_children":[1,3,5,-1,-1,7,-1,-1,-1],"loss_changes":[4.2318296E-1,2.4073341E-1,1.2303412E-1,0E0,0E0,1.827221E-1,0E0,0E0,0E0],"parents":[2147483647,0,0,1,1,2,2,5,5],"right_children":[2,4,6,-1,-1,8,-1,-1,-1],"split_conditions":[4.8500004E0,3.05E0,1.75E0,1.2866677E-2,-1.2171358E-1,1.55E0,1.0486937E-1,7.0183E-2,-5.3318065E-2],"split_indices":[2,1,3,0,0,3,0,0,0],"split_type":[0,0,0,0,0,0,0,0,0],"sum_hessian":[7.9049444E0,3.4614143E0,4.4435296E0,1.9772521E0,1.4841623E0,2.3319683E0,2.1115615E0,1.1199006E0,1.2120678E0],"tree_param":{"num_deleted":"0","num_feature":"4","num_nodes":"9","size_leaf_vector":"0"}},{"base_weights":[-3.8002808E-2,3.175857E-1,-3.3930108E-1],"categories":[],"categories_nodes":[],"categories_segments":[],"categories_sizes":[],"default_left":[1,0,0],"id":45,"left_children":[1,-1,-1],"loss_changes":[6.089705E-1,0E0,0E0],"parents":[2147483647,0,0],"right_children":[2,-1,-1],"split_conditions":[2.45E0,9.5275715E-2,-1.0179033E-1],"split_indices":[2,0,0],"split_type":[0,0,0],"sum_hessian":[3.6781945E0,1.6623051E0,2.0158894E0],"tree_param":{"num_deleted":"0","num_feature":"4","num_nodes":"3","size_leaf_vector":"0"}},{"base_weights":[-7.949374E-3,6.6193245E-2,-2.745181E-1,-1.9510342E-1,1.6499287E-1,2.3976253E-1,-2.7533446E-2,9.14984E-2,3.6456493E-1,2.2147712E-1,-8.822932E-2],"categories":[],"categories_nodes":[],"categories_segments":[],"categories_sizes":[],"default_left":[1,1,0,0,1,1,0,1,0,0,0],"id":46,"left_children":[1,3,-1,-1,5,7,-1,9,-1,-1,-1],"loss_changes":[1.8299825E-1,2.2143805E-1,0E0,0E0,9.097318E-2,4.6664536E-2,0E0,9.690244E-2,0E0,0E0,0E0],"parents":[2147483647,0,0,1,1,4,4,5,5,7,7],"right_children":[2,4,-1,-1,6,8,-1,10,-1,-1,-1],"split_conditions":[5.1499996E0,5.45E0,-8.235543E-2,-5.8531027E-2,1.75E0,1.55E0,-8.260034E-3,4.6499996E0,1.0936948E-1,6.644314E-2,-2.6468797E-2],"split_indices":[2,0,0,0,3,3,0,2,0,0,0],"split_type":[0,0,0,0,0,0,0,0,0,0,0],"sum_hessian":[7.339716E0,6.3306203E0,1.0090954E0,1.4694934E0,4.861127E0,3.3246243E0,1.5365028E0,2.311605E0,1.0130194E0,1.206659E0,1.1049459E0],"tree_param":{"num_deleted":"0","num_feature":"4","num_nodes":"11","size_leaf_vector":"0"}},{"base_weights":[2.9628724E-2,-1.665063E-1,2.2243403E-1,4.933336E-2,-3.9111346E-1,6.092149E-2,3.3015692E-1,-2.6702437E-1,3.3445373E-1],"categories":[],"categories_nodes":[],"categories_segments":[],"categories_sizes":[],"default_left":[1,1,1,1,0,0,0,0,0],"id":47,"left_children":[1,3,5,7,-1,-1,-1,-1,-1],"loss_changes":[3.485606E-1,2.44994E-1,5.961232E-2,3.8355115E-1,0E0,0E0,0E0,0E0,0E0],"parents":[2147483647,0,0,1,1,2,2,3,3],"right_children":[2,4,6,8,-1,-1,-1,-1,-1],"split_conditions":[4.95E0,3.05E0,5.1499996E0,1.6E0,-1.17334045E-1,1.8276447E-2,9.904708E-2,-8.010732E-2,1.0033613E-1],"split_indices":[2,1,2,3,0,0,0,0,0],"split_type":[0,0,0,0,0,0,0,0,0],"sum_hessian":[7.237914E0,3.6555922E0,3.5823221E0,2.2621253E0,1.3934668E0,2.0596936E0,1.5226285E0,1.1024076E0,1.1597177E0],"tree_param":{"num_deleted":"0","num_feature":"4","num_nodes":"9","size_leaf_vector":"0"}},{"base_weights":[-3.9240852E-2,2.972734E-1,-3.216618E-1],"categories":[],"categories_nodes":[],"categories_segments":[],"categories_sizes":[],"default_left":[1,0,0],"id":48,"left_children":[1,-1,-1],"loss_changes":[4.9039316E-1,0E0,0E0],"parents":[2147483647,0,0],"right_children":[2,-1,-1],"split_conditions":[2.45E0,8.918202E-2,-9.649854E-2],"split_indices":[2,0,0],"split_type":[0,0,0],"sum_hessian":[3.1538E0,1.4150863E0,1.7387136E0],"tree_param":{"num_deleted":"0","num_feature":"4","num_nodes":"3","size_leaf_vector":"0"}},{"base_weights":[-4.240285E-3,8.483507E-2,-1.2519413E-1,-1.7401297E-1,2.2303675E-1,2.954816E-2,-1.96865E-1,3.0789077E-1,5.9947047E-2],"categories":[],"categories_nodes":[],"categories_segments":[],"categories_sizes":[],"default_left":[1,1,1,0,1,0,0,0,0],"id":49,"left_children":[1,3,5,-1,7,-1,-1,-1,-1],"loss_changes":[9.387717E-2,2.1933319E-1,4.664377E-2,0E0,3.31351E-2,0E0,0E0,0E0,0E0],"parents":[2147483647,0,0,1,1,2,2,4,4],"right_children":[2,4,6,-1,8,-1,-1,-1,-1],"split_conditions":[4.95E0,5.45E0,6.05E0,-5.2203894E-2,5.95E0,8.864448E-3,-5.9059504E-2,9.236723E-2,1.7984115E-2],"split_indices":[2,0,0,0,0,0,0,0,0],"split_type":[0,0,0,0,0,0,0,0,0],"sum_hessian":[6.7275167E0,4.046284E0,2.6812327E0,1.3182026E0,2.7280815E0,1.0347852E0,1.6464474E0,1.2104398E0,1.5176415E0],"tree_param":{"num_deleted":"0","num_feature":"4","num_nodes":"9","size_leaf_vector":"0"}},{"base_weights":[2.585512E-2,-1.6054553E-1,2.0660017E-1,4.667626E-2,-3.7171382E-1,6.1598316E-2,3.052516E-1,-2.0080782E-2,8.98494E-2],"categories":[],"categories_nodes":[],"categories_segments":[],"categories_sizes":[],"default_left":[1,1,1,1,0,0,0,0,0],"id":50,"left_children":[1,3,5,7,-1,-1,-1,-1,-1],"loss_changes":[2.8826186E-1,2.0508273E-1,4.2440534E-2,1.0605524E-2,0E0,0E0,0E0,0E0,0E0],"parents":[2147483647,0,0,1,1,2,2,3,3],"right_children":[2,4,6,8,-1,-1,-1,-1,-1],"split_conditions":[4.95E0,3.05E0,5.1499996E0,5.95E0,-1.1151415E-1,1.8479496E-2,9.157548E-2,-6.024235E-3,2.695482E-2],"split_indices":[2,1,2,0,0,0,0,0,0],"split_type":[0,0,0,0,0,0,0,0,0],"sum_hessian":[6.571552E0,3.2901788E0,3.281373E0,2.0537615E0,1.2364173E0,1.9862726E0,1.2951003E0,1.0166423E0,1.037119E0],"tree_param":{"num_deleted":"0","num_feature":"4","num_nodes":"9","size_leaf_vector":"0"}},{"base_weights":[-3.983401E-2,2.7932978E-1,-3.057528E-1],"categories":[],"categories_nodes":[],"categories_segments":[],"categories_sizes":[],"default_left":[1,0,0],"id":51,"left_children":[1,-1,-1],"loss_changes":[4.042501E-1,0E0,0E0],"parents":[2147483647,0,0],"right_children":[2,-1,-1],"split_conditions":[2.45E0,8.379894E-2,-9.172585E-2],"split_indices":[2,0,0],"split_type":[0,0,0],"sum_hessian":[2.7567806E0,1.2300296E0,1.5267512E0],"tree_param":{"num_deleted":"0","num_feature":"4","num_nodes":"3","size_leaf_vector":"0"}},{"base_weights":[-7.109214E-4,-1.5717232E-1,5.583595E-2,1.9887914E-1,-1.0426855E-1,2.7702495E-1,4.9955532E-2,3.0522803E-2,-1.7131124E-1],"categories":[],"categories_nodes":[],"categories_segments":[],"categories_sizes":[],"default_left":[1,0,1,1,1,0,0,0,0],"id":52,"left_children":[1,-1,3,5,7,-1,-1,-1,-1],"loss_changes":[7.408293E-2,0E0,1.6180806E-1,2.802439E-2,3.7423458E-2,0E0,0E0,0E0,0E0],"parents":[2147483647,0,0,2,2,3,3,4,4],"right_children":[2,-1,4,6,8,-1,-1,-1,-1],"split_conditions":[5.45E0,-4.71517E-2,4.95E0,5.95E0,6.05E0,8.310749E-2,1.498666E-2,9.156841E-3,-5.1393375E-2],"split_indices":[0,0,2,0,0,0,0,0,0],"split_type":[0,0,0,0,0,0,0,0,0],"sum_hessian":[6.3814964E0,1.2216811E0,5.159815E0,2.5971992E0,2.5626156E0,1.1392239E0,1.4579754E0,1.0321577E0,1.5304581E0],"tree_param":{"num_deleted":"0","num_feature":"4","num_nodes":"9","size_leaf_vector":"0"}},{"base_weights":[2.1530984E-2,-1.4168386E-1,1.8095453E-1,-3.117022E-1,8.835112E-2,4.170198E-2,2.795428E-1],"categories":[],"categories_nodes":[],"categories_segments":[],"categories_sizes":[],"default_left":[1,1,1,0,0,0,0],"id":53,"left_children":[1,3,5,-1,-1,-1,-1],"loss_changes":[2.1283184E-1,1.8850327E-1,4.4334576E-2,0E0,0E0,0E0,0E0],"parents":[2147483647,0,0,1,1,2,2],"right_children":[2,4,6,-1,-1,-1,-1],"split_conditions":[4.95E0,1.6500001E0,1.75E0,-9.351066E-2,2.6505338E-2,1.2510595E-2,8.386284E-2],"split_indices":[2,3,3,0,0,0,0],"split_type":[0,0,0,0,0,0,0],"sum_hessian":[6.194135E0,3.1156573E0,3.0784776E0,1.5873958E0,1.5282617E0,1.8659204E0,1.2125572E0],"tree_param":{"num_deleted":"0","num_feature":"4","num_nodes":"7","size_leaf_vector":"0"}},{"base_weights":[-3.9644603E-2,2.6222587E-1,-2.900114E-1],"categories":[],"categories_nodes":[],"categories_segments":[],"categories_sizes":[],"default_left":[1,0,0],"id":54,"left_children":[1,-1,-1],"loss_changes":[3.3477163E-1,0E0,0E0],"parents":[2147483647,0,0],"right_children":[2,-1,-1],"split_conditions":[2.45E0,7.866776E-2,-8.7003425E-2],"split_indices":[2,0,0],"split_type":[0,0,0],"sum_hessian":[2.4232447E0,1.0771475E0,1.3460972E0],"tree_param":{"num_deleted":"0","num_feature":"4","num_nodes":"3","size_leaf_vector":"0"}},{"base_weights":[1.1285786E-3,-1.4504352E-1,5.3574774E-2,1.7986558E-1,-8.699998E-2,2.6039407E-1,3.3799622E-2,3.402468E-2,-1.5125607E-1],"categories":[],"categories_nodes":[],"categories_segments":[],"categories_sizes":[],"default_left":[1,0,1,1,1,0,0,0,0],"id":55,"left_children":[1,-1,3,5,7,-1,-1,-1,-1],"loss_changes":[6.1546024E-2,0E0,1.2026216E-1,3.154441E-2,3.20737E-2,0E0,0E0,0E0,0E0],"parents":[2147483647,0,0,2,2,3,3,4,4],"right_children":[2,-1,4,6,8,-1,-1,-1,-1],"split_conditions":[5.45E0,-4.351306E-2,4.95E0,5.95E0,6.05E0,7.811822E-2,1.0139887E-2,1.0207403E-2,-4.5376822E-2],"split_indices":[0,0,2,0,0,0,0,0,0],"split_type":[0,0,0,0,0,0,0,0,0],"sum_hessian":[6.0146294E0,1.1219867E0,4.8926425E0,2.4300294E0,2.462613E0,1.0618817E0,1.3681479E0,1.0172093E0,1.4454039E0],"tree_param":{"num_deleted":"0","num_feature":"4","num_nodes":"9","size_leaf_vector":"0"}},{"base_weights":[1.880237E-2,-7.060857E-2,2.681351E-1,4.202334E-2,-2.8248522E-1,-1.2097906E-1,2.0987172E-1],"categories":[],"categories_nodes":[],"categories_segments":[],"categories_sizes":[],"default_left":[1,1,0,1,0,0,0],"id":56,"left_children":[1,3,-1,5,-1,-1,-1],"loss_changes":[1.7045783E-1,1.5015064E-1,0E0,1.5271664E-1,0E0,0E0,0E0],"parents":[2147483647,0,0,1,1,3,3],"right_children":[2,4,-1,6,-1,-1,-1],"split_conditions":[5.1499996E0,3.05E0,8.0440536E-2,1.6500001E0,-8.474557E-2,-3.629372E-2,6.296152E-2],"split_indices":[2,1,0,3,0,0,0],"split_type":[0,0,0,0,0,0,0],"sum_hessian":[5.7969623E0,4.794471E0,1.0024918E0,3.653801E0,1.1406697E0,1.9953222E0,1.6584789E0],"tree_param":{"num_deleted":"0","num_feature":"4","num_nodes":"7","size_leaf_vector":"0"}},{"base_weights":[-3.8628872E-2,2.2593388E-1,-2.6935074E-1],"categories":[],"categories_nodes":[],"categories_segments":[],"categories_sizes":[],"default_left":[1,0,0],"id":57,"left_children":[1,-1,-1],"loss_changes":[2.536062E-1,0E0,0E0],"parents":[2147483647,0,0],"right_children":[2,-1,-1],"split_conditions":[3.4E0,6.778017E-2,-8.080523E-2],"split_indices":[2,0,0],"split_type":[0,0,0],"sum_hessian":[2.1577566E0,1.0148299E0,1.1429268E0],"tree_param":{"num_deleted":"0","num_feature":"4","num_nodes":"3","size_leaf_vector":"0"}},{"base_weights":[2.3436998E-3,6.072442E-2,-1.065545E-1,-1.294966E-1,1.4287004E-1,8.900668E-3,2.4922867E-1],"categories":[],"categories_nodes":[],"categories_segments":[],"categories_sizes":[],"default_left":[1,1,0,0,1,0,0],"id":58,"left_children":[1,3,-1,-1,5,-1,-1],"loss_changes":[4.926809E-2,9.693277E-2,0E0,0E0,5.4505765E-2,0E0,0E0],"parents":[2147483647,0,0,1,1,4,4],"right_children":[2,4,-1,-1,6,-1,-1],"split_conditions":[1.75E0,5.45E0,-3.196635E-2,-3.884898E-2,1.55E0,2.6702003E-3,7.47686E-2],"split_indices":[3,0,0,0,3,0,0],"split_type":[0,0,0,0,0,0,0],"sum_hessian":[5.7317743E0,4.019357E0,1.7124175E0,1.0383855E0,2.9809716E0,1.798839E0,1.1821326E0],"tree_param":{"num_deleted":"0","num_feature":"4","num_nodes":"7","size_leaf_vector":"0"}},{"base_weights":[1.6348675E-2,-1.1697111E-1,1.4248618E-1,-2.8444454E-1,8.8128835E-2,1.3752761E-2,1.8916428E-1],"categories":[],"categories_nodes":[],"categories_segments":[],"categories_sizes":[],"default_left":[1,1,1,0,0,0,0],"id":59,"left_children":[1,3,5,-1,-1,-1,-1],"loss_changes":[1.2590869E-1,1.5240875E-1,2.0165317E-2,0E0,0E0,0E0,0E0],"parents":[2147483647,0,0,1,1,2,2],"right_children":[2,4,6,-1,-1,-1,-1],"split_conditions":[4.95E0,1.6500001E0,6.05E0,-8.533336E-2,2.6438652E-2,4.1258284E-3,5.6749288E-2],"split_indices":[2,3,0,0,0,0,0],"split_type":[0,0,0,0,0,0,0],"sum_hessian":[5.4960666E0,2.7072916E0,2.788775E0,1.277388E0,1.4299036E0,1.0866193E0,1.7021557E0],"tree_param":{"num_deleted":"0","num_feature":"4","num_nodes":"7","size_leaf_vector":"0"}},{"base_weights":[-4.1420393E-2],"categories":[],"categories_nodes":[],"categories_segments":[],"categories_sizes":[],"default_left":[0],"id":60,"left_children":[-1],"loss_changes":[0E0],"parents":[2147483647],"right_children":[-1],"split_conditions":[-1.2426118E-2],"split_indices":[0],"split_type":[0],"sum_hessian":[1.9475789E0],"tree_param":{"num_deleted":"0","num_feature":"4","num_nodes":"1","size_leaf_vector":"0"}},{"base_weights":[5.5243634E-3,6.952943E-2,-7.564741E-2,-9.820226E-2,1.6380967E-1,1.3861488E-2,-1.20917626E-1],"categories":[],"categories_nodes":[],"categories_segments":[],"categories_sizes":[],"default_left":[1,1,1,0,0,0,0],"id":61,"left_children":[1,3,5,-1,-1,-1,-1],"loss_changes":[3.893323E-2,8.163421E-2,1.5195591E-2,0E0,0E0,0E0,0E0],"parents":[2147483647,0,0,1,1,2,2],"right_children":[2,4,6,-1,-1,-1,-1],"split_conditions":[4.95E0,5.55E0,2.75E0,-2.9460678E-2,4.9142905E-2,4.1584466E-3,-3.627529E-2],"split_indices":[2,0,1,0,0,0,0],"split_type":[0,0,0,0,0,0,0],"sum_hessian":[5.481402E0,3.1449745E0,2.3364277E0,1.1166931E0,2.0282812E0,1.0178084E0,1.3186193E0],"tree_param":{"num_deleted":"0","num_feature":"4","num_nodes":"7","size_leaf_vector":"0"}},{"base_weights":[1.3863615E-2,9.337218E-2,-1.9790143E-1,-4.9979445E-2,3.0220404E-1,1.2859523E-1,-1.6584733E-1],"categories":[],"categories_nodes":[],"categories_segments":[],"categories_sizes":[],"default_left":[1,1,0,1,0,0,0],"id":62,"left_children":[1,3,-1,5,-1,-1,-1],"loss_changes":[1.2327255E-1,1.7090692E-1,0E0,1.0293574E-1,0E0,0E0,0E0],"parents":[2147483647,0,0,1,1,3,3],"right_children":[2,4,-1,6,-1,-1,-1],"split_conditions":[3.15E0,1.75E0,-5.9370432E-2,2.65E0,9.066121E-2,3.857857E-2,-4.9754202E-2],"split_indices":[1,3,0,1,0,0,0],"split_type":[0,0,0,0,0,0,0],"sum_hessian":[5.2239842E0,4.2044663E0,1.0195179E0,2.944144E0,1.2603223E0,1.1153429E0,1.8288013E0],"tree_param":{"num_deleted":"0","num_feature":"4","num_nodes":"7","size_leaf_vector":"0"}},{"base_weights":[-3.8290232E-2],"categories":[],"categories_nodes":[],"categories_segments":[],"categories_sizes":[],"default_left":[0],"id":63,"left_children":[-1],"loss_changes":[0E0],"parents":[2147483647],"right_children":[-1],"split_conditions":[-1.14870705E-2],"split_indices":[0],"split_type":[0],"sum_hessian":[1.8931389E0],"tree_param":{"num_deleted":"0","num_feature":"4","num_nodes":"1","size_leaf_vector":"0"}},{"base_weights":[3.190595E-3,5.2793566E-2,-9.293638E-2,-3.947394E-2,1.8630674E-1,-9.4478935E-2,1.8162452E-2],"categories":[],"categories_nodes":[],"categories_segments":[],"categories_sizes":[],"default_left":[1,1,0,1,0,0,0],"id":64,"left_children":[1,3,-1,5,-1,-1,-1],"loss_changes":[3.5124995E-2,6.670837E-2,0E0,1.3364615E-2,0E0,0E0,0E0],"parents":[2147483647,0,0,1,1,3,3],"right_children":[2,4,-1,6,-1,-1,-1],"split_conditions":[5.05E0,6.05E0,-2.7880916E-2,2.65E0,5.5892024E-2,-2.8343681E-2,5.448736E-3],"split_indices":[2,0,0,1,0,0,0],"split_type":[0,0,0,0,0,0,0],"sum_hessian":[5.337539E0,3.8181233E0,1.5194159E0,2.6743164E0,1.1438069E0,1.0413172E0,1.6329993E0],"tree_param":{"num_deleted":"0","num_feature":"4","num_nodes":"7","size_leaf_vector":"0"}},{"base_weights":[1.4935763E-2,-1.2576E-1,1.23921394E-1,6.843415E-3,1.7288727E-1],"categories":[],"categories_nodes":[],"categories_segments":[],"categories_sizes":[],"default_left":[1,0,1,0,0],"id":65,"left_children":[1,-1,3,-1,-1],"loss_changes":[1.0855369E-1,0E0,2.12907E-2,0E0,0E0],"parents":[2147483647,0,0,2,2],"right_children":[2,-1,4,-1,-1],"split_conditions":[4.8500004E0,-3.7728004E-2,2.75E0,2.0530247E-3,5.186618E-2],"split_indices":[2,0,1,0,0],"split_type":[0,0,0,0,0],"sum_hessian":[5.0630264E0,2.1428218E0,2.9202044E0,1.197272E0,1.7229325E0],"tree_param":{"num_deleted":"0","num_feature":"4","num_nodes":"5","size_leaf_vector":"0"}},{"base_weights":[-3.3339232E-2],"categories":[],"categories_nodes":[],"categories_segments":[],"categories_sizes":[],"default_left":[0],"id":66,"left_children":[-1],"loss_changes":[0E0],"parents":[2147483647],"right_children":[-1],"split_conditions":[-1.000177E-2],"split_indices":[0],"split_type":[0],"sum_hessian":[1.8651987E0],"tree_param":{"num_deleted":"0","num_feature":"4","num_nodes":"1","size_leaf_vector":"0"}},{"base_weights":[2.8066686E-3,5.3707704E-2,-9.169029E-2,-9.160764E-2,1.2475461E-1,-2.3266302E-2,2.3662102E-1],"categories":[],"categories_nodes":[],"categories_segments":[],"categories_sizes":[],"default_left":[1,1,0,0,1,0,0],"id":67,"left_children":[1,3,-1,-1,5,-1,-1],"loss_changes":[3.4988668E-2,5.987838E-2,0E0,0E0,6.47064E-2,0E0,0E0],"parents":[2147483647,0,0,1,1,4,4],"right_children":[2,4,-1,-1,6,-1,-1],"split_conditions":[1.75E0,5.55E0,-2.7507087E-2,-2.7482292E-2,1.55E0,-6.979891E-3,7.098631E-2],"split_indices":[3,0,0,0,3,0,0],"split_type":[0,0,0,0,0,0,0],"sum_hessian":[5.250361E0,3.692846E0,1.557515E0,1.1175913E0,2.575255E0,1.4494152E0,1.1258396E0],"tree_param":{"num_deleted":"0","num_feature":"4","num_nodes":"7","size_leaf_vector":"0"}},{"base_weights":[1.3095419E-2,9.146964E-2,-1.6893694E-1,-3.994039E-2,2.836994E-1,1.19551025E-1,-1.508534E-1],"categories":[],"categories_nodes":[],"categories_segments":[],"categories_sizes":[],"default_left":[1,1,0,1,0,0,0],"id":68,"left_children":[1,3,-1,5,-1,-1,-1],"loss_changes":[1.0040716E-1,1.3286924E-1,0E0,8.409371E-2,0E0,0E0,0E0],"parents":[2147483647,0,0,1,1,3,3],"right_children":[2,4,-1,6,-1,-1,-1],"split_conditions":[3.05E0,1.75E0,-5.0681084E-2,2.65E0,8.510982E-2,3.586531E-2,-4.525602E-2],"split_indices":[1,3,0,1,0,0,0],"split_type":[0,0,0,0,0,0,0],"sum_hessian":[4.9547687E0,3.8113127E0,1.1434559E0,2.7343273E0,1.0769855E0,1.0896065E0,1.6447207E0],"tree_param":{"num_deleted":"0","num_feature":"4","num_nodes":"7","size_leaf_vector":"0"}},{"base_weights":[-3.391016E-2],"categories":[],"categories_nodes":[],"categories_segments":[],"categories_sizes":[],"default_left":[0],"id":69,"left_children":[-1],"loss_changes":[0E0],"parents":[2147483647],"right_children":[-1],"split_conditions":[-1.0173048E-2],"split_indices":[0],"split_type":[0],"sum_hessian":[1.8297299E0],"tree_param":{"num_deleted":"0","num_feature":"4","num_nodes":"1","size_leaf_vector":"0"}},{"base_weights":[2.1939666E-3,6.300596E-2,-7.46246E-2,-8.278546E-2,1.4884005E-1],"categories":[],"categories_nodes":[],"categories_segments":[],"categories_sizes":[],"default_left":[1,1,0,0,0],"id":70,"left_children":[1,3,-1,-1,-1],"loss_changes":[3.33548E-2,6.194776E-2,0E0,0E0,0E0],"parents":[2147483647,0,0,1,1],"right_children":[2,4,-1,-1,-1],"split_conditions":[4.95E0,5.55E0,-2.238738E-2,-2.4835639E-2,4.465202E-2],"split_indices":[2,0,0,0,0],"split_type":[0,0,0,0,0],"sum_hessian":[5.13359E0,2.9656758E0,2.1679142E0,1.1121604E0,1.8535154E0],"tree_param":{"num_deleted":"0","num_feature":"4","num_nodes":"5","size_leaf_vector":"0"}},{"base_weights":[1.4175288E-2,-1.13313645E-1,1.3320605E-1,-2.6033077E-1,6.8086386E-2,2.108483E-2,1.7109914E-1],"categories":[],"categories_nodes":[],"categories_segments":[],"categories_sizes":[],"default_left":[1,1,1,0,0,0,0],"id":71,"left_children":[1,3,5,-1,-1,-1,-1],"loss_changes":[1.0341132E-1,1.0707768E-1,1.113271E-2,0E0,0E0,0E0,0E0],"parents":[2147483647,0,0,1,1,2,2],"right_children":[2,4,6,-1,-1,-1,-1],"split_conditions":[4.95E0,1.6500001E0,2.75E0,-7.8099236E-2,2.0425916E-2,6.3254493E-3,5.1329743E-2],"split_indices":[2,3,1,0,0,0,0],"split_type":[0,0,0,0,0,0,0],"sum_hessian":[4.8198776E0,2.3504443E0,2.4694333E0,1.0579227E0,1.2925217E0,1.0169189E0,1.4525143E0],"tree_param":{"num_deleted":"0","num_feature":"4","num_nodes":"7","size_leaf_vector":"0"}},{"base_weights":[-3.242054E-2],"categories":[],"categories_nodes":[],"categories_segments":[],"categories_sizes":[],"default_left":[0],"id":72,"left_children":[-1],"loss_changes":[0E0],"parents":[2147483647],"right_children":[-1],"split_conditions":[-9.726162E-3],"split_indices":[0],"split_type":[0],"sum_hessian":[1.7763982E0],"tree_param":{"num_deleted":"0","num_feature":"4","num_nodes":"1","size_leaf_vector":"0"}},{"base_weights":[3.5633978E-3,-7.921727E-2,4.8412066E-2,1.3796368E-1,-4.1732565E-2],"categories":[],"categories_nodes":[],"categories_segments":[],"categories_sizes":[],"default_left":[1,0,1,0,0],"id":73,"left_children":[1,-1,3,-1,-1],"loss_changes":[2.6122523E-2,0E0,4.220021E-2,0E0,0E0],"parents":[2147483647,0,0,2,2],"right_children":[2,-1,4,-1,-1],"split_conditions":[5.8500004E0,-2.3765182E-2,4.95E0,4.1389108E-2,-1.251977E-2],"split_indices":[0,0,2,0,0],"split_type":[0,0,0,0,0],"sum_hessian":[5.0031877E0,1.4888247E0,3.5143628E0,1.4968698E0,2.017493E0],"tree_param":{"num_deleted":"0","num_feature":"4","num_nodes":"5","size_leaf_vector":"0"}},{"base_weights":[1.2100735E-2,-1.4035426E-1,1.0285401E-1,-4.6540476E-2,2.771274E-1,1.2884665E-1,-1.9342425E-1],"categories":[],"categories_nodes":[],"categories_segments":[],"categories_sizes":[],"default_left":[1,0,1,1,0,0,0],"id":74,"left_children":[1,-1,3,5,-1,-1,-1],"loss_changes":[9.289431E-2,0E0,1.2046993E-1,1.0429027E-1,0E0,0E0,0E0],"parents":[2147483647,0,0,2,2,3,3],"right_children":[2,-1,4,6,-1,-1,-1],"split_conditions":[5.95E0,-4.210628E-2,1.75E0,1.55E0,8.313822E-2,3.8653996E-2,-5.802728E-2],"split_indices":[0,0,3,3,0,0,0],"split_type":[0,0,0,0,0,0,0],"sum_hessian":[4.6706777E0,1.538921E0,3.1317565E0,2.080882E0,1.0508745E0,1.0043877E0,1.0764943E0],"tree_param":{"num_deleted":"0","num_feature":"4","num_nodes":"7","size_leaf_vector":"0"}},{"base_weights":[-3.1183451E-2],"categories":[],"categories_nodes":[],"categories_segments":[],"categories_sizes":[],"default_left":[0],"id":75,"left_children":[-1],"loss_changes":[0E0],"parents":[2147483647],"right_children":[-1],"split_conditions":[-9.355036E-3],"split_indices":[0],"split_type":[0],"sum_hessian":[1.7357515E0],"tree_param":{"num_deleted":"0","num_feature":"4","num_nodes":"1","size_leaf_vector":"0"}},{"base_weights":[2.1127071E-3,-7.977629E-2,4.769812E-2,1.3391475E-1,-3.9905187E-2],"categories":[],"categories_nodes":[],"categories_segments":[],"categories_sizes":[],"default_left":[1,0,1,0,0],"id":76,"left_children":[1,-1,3,-1,-1],"loss_changes":[2.5835495E-2,0E0,3.870473E-2,0E0,0E0],"parents":[2147483647,0,0,2,2],"right_children":[2,-1,4,-1,-1],"split_conditions":[5.8500004E0,-2.3932887E-2,4.95E0,4.017443E-2,-1.1971557E-2],"split_indices":[0,0,2,0,0],"split_type":[0,0,0,0,0],"sum_hessian":[4.9015927E0,1.4846139E0,3.416979E0,1.455686E0,1.9612931E0],"tree_param":{"num_deleted":"0","num_feature":"4","num_nodes":"5","size_leaf_vector":"0"}},{"base_weights":[1.3117768E-2,8.770127E-2,-1.601858E-1,-2.124828E-2,1.8146381E-1],"categories":[],"categories_nodes":[],"categories_segments":[],"categories_sizes":[],"default_left":[1,1,0,0,0],"id":77,"left_children":[1,3,-1,-1,-1],"loss_changes":[8.582367E-2,5.0115164E-2,0E0,0E0,0E0],"parents":[2147483647,0,0,1,1],"right_children":[2,4,-1,-1,-1],"split_conditions":[3.05E0,1.6500001E0,-4.8055742E-2,-6.374484E-3,5.4439146E-2],"split_indices":[1,3,0,0,0],"split_type":[0,0,0,0,0],"sum_hessian":[4.5529532E0,3.5284023E0,1.0245508E0,1.9897492E0,1.5386531E0],"tree_param":{"num_deleted":"0","num_feature":"4","num_nodes":"5","size_leaf_vector":"0"}},{"base_weights":[-3.1575512E-2],"categories":[],"categories_nodes":[],"categories_segments":[],"categories_sizes":[],"default_left":[0],"id":78,"left_children":[-1],"loss_changes":[0E0],"parents":[2147483647],"right_children":[-1],"split_conditions":[-9.472654E-3],"split_indices":[0],"split_type":[0],"sum_hessian":[1.7066042E0],"tree_param":{"num_deleted":"0","num_feature":"4","num_nodes":"1","size_leaf_vector":"0"}},{"base_weights":[3.655404E-3,4.8609413E-2,-8.2512766E-2,-7.5191565E-2,1.097088E-1,-3.3079274E-2,2.1443656E-1],"categories":[],"categories_nodes":[],"categories_segments":[],"categories_sizes":[],"default_left":[1,1,0,0,1,0,0],"id":79,"left_children":[1,3,-1,-1,5,-1,-1],"loss_changes":[2.6629763E-2,4.2035162E-2,0E0,0E0,5.7895992E-2,0E0,0E0],"parents":[2147483647,0,0,1,1,4,4],"right_children":[2,4,-1,-1,6,-1,-1],"split_conditions":[1.75E0,5.55E0,-2.4753831E-2,-2.2557471E-2,1.55E0,-9.923782E-3,6.433097E-2],"split_indices":[3,0,0,0,3,0,0],"split_type":[0,0,0,0,0,0,0],"sum_hessian":[4.8392296E0,3.466586E0,1.3726435E0,1.0693008E0,2.3972852E0,1.3037987E0,1.0934865E0],"tree_param":{"num_deleted":"0","num_feature":"4","num_nodes":"7","size_leaf_vector":"0"}},{"base_weights":[1.1682308E-2,-1.312952E-1,9.686669E-2,-4.3681253E-2,1.5968224E-1],"categories":[],"categories_nodes":[],"categories_segments":[],"categories_sizes":[],"default_left":[1,0,1,0,0],"id":80,"left_children":[1,-1,3,-1,-1],"loss_changes":[7.956485E-2,0E0,4.2420197E-2,0E0,0E0],"parents":[2147483647,0,0,2,2],"right_children":[2,-1,4,-1,-1],"split_conditions":[5.95E0,-3.9388563E-2,2.75E0,-1.3104376E-2,4.7904674E-2],"split_indices":[0,0,1,0,0],"split_type":[0,0,0,0,0],"sum_hessian":[4.488484E0,1.4736813E0,3.0148027E0,1.0253109E0,1.9894918E0],"tree_param":{"num_deleted":"0","num_feature":"4","num_nodes":"5","size_leaf_vector":"0"}},{"base_weights":[-3.1875547E-2],"categories":[],"categories_nodes":[],"categories_segments":[],"categories_sizes":[],"default_left":[0],"id":81,"left_children":[-1],"loss_changes":[0E0],"parents":[2147483647],"right_children":[-1],"split_conditions":[-9.562665E-3],"split_indices":[0],"split_type":[0],"sum_hessian":[1.68076E0],"tree_param":{"num_deleted":"0","num_feature":"4","num_nodes":"1","size_leaf_vector":"0"}},{"base_weights":[5.11431E-3,-7.217616E-2,4.7897074E-2,1.1224976E-1,-6.155089E-2],"categories":[],"categories_nodes":[],"categories_segments":[],"categories_sizes":[],"default_left":[1,0,1,0,0],"id":82,"left_children":[1,-1,3,-1,-1],"loss_changes":[2.2551995E-2,0E0,3.7323307E-2,0E0,0E0],"parents":[2147483647,0,0,2,2],"right_children":[2,-1,4,-1,-1],"split_conditions":[5.8500004E0,-2.1652848E-2,5.05E0,3.367493E-2,-1.8465267E-2],"split_indices":[0,0,2,0,0],"split_type":[0,0,0,0,0],"sum_hessian":[4.77463E0,1.4564319E0,3.3181982E0,2.0734575E0,1.2447407E0],"tree_param":{"num_deleted":"0","num_feature":"4","num_nodes":"5","size_leaf_vector":"0"}},{"base_weights":[1.0332241E-2,-1.2586904E-1,9.273726E-2,-3.584875E-2,1.4930817E-1],"categories":[],"categories_nodes":[],"categories_segments":[],"categories_sizes":[],"default_left":[1,0,1,0,0],"id":83,"left_children":[1,-1,3,-1,-1],"loss_changes":[7.2412446E-2,0E0,3.4067795E-2,0E0,0E0],"parents":[2147483647,0,0,2,2],"right_children":[2,-1,4,-1,-1],"split_conditions":[5.95E0,-3.7760712E-2,2.75E0,-1.0754626E-2,4.4792455E-2],"split_indices":[0,0,1,0,0],"split_type":[0,0,0,0,0],"sum_hessian":[4.41175E0,1.4642135E0,2.9475365E0,1.0124766E0,1.9350599E0],"tree_param":{"num_deleted":"0","num_feature":"4","num_nodes":"5","size_leaf_vector":"0"}},{"base_weights":[-3.1700123E-2],"categories":[],"categories_nodes":[],"categories_segments":[],"categories_sizes":[],"default_left":[0],"id":84,"left_children":[-1],"loss_changes":[0E0],"parents":[2147483647],"right_children":[-1],"split_conditions":[-9.5100375E-3],"split_indices":[0],"split_type":[0],"sum_hessian":[1.6526959E0],"tree_param":{"num_deleted":"0","num_feature":"4","num_nodes":"1","size_leaf_vector":"0"}},{"base_weights":[4.9636997E-3,4.7376614E-2,-7.857267E-2,-7.5396195E-2,1.0858647E-1,-3.115928E-2,2.1056888E-1],"categories":[],"categories_nodes":[],"categories_segments":[],"categories_sizes":[],"default_left":[1,1,0,0,1,0,0],"id":85,"left_children":[1,3,-1,-1,5,-1,-1],"loss_changes":[2.399954E-2,4.140069E-2,0E0,0E0,5.4433733E-2,0E0,0E0],"parents":[2147483647,0,0,1,1,4,4],"right_children":[2,4,-1,-1,6,-1,-1],"split_conditions":[1.75E0,5.55E0,-2.3571802E-2,-2.261886E-2,1.55E0,-9.347784E-3,6.3170664E-2],"split_indices":[3,0,0,0,3,0,0],"split_type":[0,0,0,0,0,0,0],"sum_hessian":[4.723091E0,3.419707E0,1.3033843E0,1.0606078E0,2.3590994E0,1.2882643E0,1.070835E0],"tree_param":{"num_deleted":"0","num_feature":"4","num_nodes":"7","size_leaf_vector":"0"}},{"base_weights":[1.0399789E-2,-1.1658466E-1,8.7261215E-2,-3.1443745E-2,1.3992555E-1],"categories":[],"categories_nodes":[],"categories_segments":[],"categories_sizes":[],"default_left":[1,0,1,0,0],"id":86,"left_children":[1,-1,3,-1,-1],"loss_changes":[6.2435154E-2,0E0,2.8827772E-2,0E0,0E0],"parents":[2147483647,0,0,2,2],"right_children":[2,-1,4,-1,-1],"split_conditions":[5.95E0,-3.49754E-2,2.75E0,-9.433124E-3,4.1977666E-2],"split_indices":[0,0,1,0,0],"split_type":[0,0,0,0,0],"sum_hessian":[4.3545837E0,1.4470555E0,2.9075284E0,1.0173566E0,1.8901718E0],"tree_param":{"num_deleted":"0","num_feature":"4","num_nodes":"5","size_leaf_vector":"0"}},{"base_weights":[-3.2100644E-2],"categories":[],"categories_nodes":[],"categories_segments":[],"categories_sizes":[],"default_left":[0],"id":87,"left_children":[-1],"loss_changes":[0E0],"parents":[2147483647],"right_children":[-1],"split_conditions":[-9.630194E-3],"split_indices":[0],"split_type":[0],"sum_hessian":[1.6306779E0],"tree_param":{"num_deleted":"0","num_feature":"4","num_nodes":"1","size_leaf_vector":"0"}},{"base_weights":[5.9760297E-3,-7.313198E-2,5.0468806E-2,1.3348487E-1,-3.516707E-2],"categories":[],"categories_nodes":[],"categories_segments":[],"categories_sizes":[],"default_left":[1,0,1,0,0],"id":88,"left_children":[1,-1,3,-1,-1],"loss_changes":[2.3637015E-2,0E0,3.468553E-2,0E0,0E0],"parents":[2147483647,0,0,2,2],"right_children":[2,-1,4,-1,-1],"split_conditions":[5.8500004E0,-2.1939594E-2,4.95E0,4.0045463E-2,-1.0550121E-2],"split_indices":[0,0,2,0,0],"split_type":[0,0,0,0,0],"sum_hessian":[4.666941E0,1.4482591E0,3.2186818E0,1.3506258E0,1.8680562E0],"tree_param":{"num_deleted":"0","num_feature":"4","num_nodes":"5","size_leaf_vector":"0"}},{"base_weights":[9.562647E-3,-1.03882566E-1,9.855108E-2,1.43622635E-2,1.3005434E-1],"categories":[],"categories_nodes":[],"categories_segments":[],"categories_sizes":[],"default_left":[1,0,1,0,0],"id":89,"left_children":[1,-1,3,-1,-1],"loss_changes":[6.363431E-2,0E0,7.354688E-3,0E0,0E0],"parents":[2147483647,0,0,2,2],"right_children":[2,-1,4,-1,-1],"split_conditions":[4.8500004E0,-3.1164771E-2,2.75E0,4.308679E-3,3.9016303E-2],"split_indices":[2,0,1,0,0],"split_type":[0,0,0,0,0],"sum_hessian":[4.2892447E0,1.811947E0,2.4772978E0,1.0710194E0,1.4062783E0],"tree_param":{"num_deleted":"0","num_feature":"4","num_nodes":"5","size_leaf_vector":"0"}},{"base_weights":[-3.1463034E-2],"categories":[],"categories_nodes":[],"categories_segments":[],"categories_sizes":[],"default_left":[0],"id":90,"left_children":[-1],"loss_changes":[0E0],"parents":[2147483647],"right_children":[-1],"split_conditions":[-9.4389105E-3],"split_indices":[0],"split_type":[0],"sum_hessian":[1.603957E0],"tree_param":{"num_deleted":"0","num_feature":"4","num_nodes":"1","size_leaf_vector":"0"}},{"base_weights":[5.212361E-3,4.8217513E-2,-8.020318E-2,-7.430256E-2,1.0965748E-1,-2.9063152E-2,2.0831215E-1],"categories":[],"categories_nodes":[],"categories_segments":[],"categories_sizes":[],"default_left":[1,1,0,0,1,0,0],"id":91,"left_children":[1,3,-1,-1,5,-1,-1],"loss_changes":[2.4508085E-2,4.0983073E-2,0E0,0E0,5.1339824E-2,0E0,0E0],"parents":[2147483647,0,0,1,1,4,4],"right_children":[2,4,-1,-1,6,-1,-1],"split_conditions":[1.75E0,5.55E0,-2.4060955E-2,-2.229077E-2,1.55E0,-8.718946E-3,6.249365E-2],"split_indices":[3,0,0,0,3,0,0],"split_type":[0,0,0,0,0,0,0],"sum_hessian":[4.619154E0,3.3619628E0,1.2571914E0,1.052926E0,2.3090367E0,1.2528211E0,1.0562158E0],"tree_param":{"num_deleted":"0","num_feature":"4","num_nodes":"7","size_leaf_vector":"0"}},{"base_weights":[1.0050122E-2,-7.004956E-2,1.2848641E-1,1.1810389E-1,-1.8076393E-1],"categories":[],"categories_nodes":[],"categories_segments":[],"categories_sizes":[],"default_left":[1,1,0,0,0],"id":92,"left_children":[1,3,-1,-1,-1],"loss_changes":[5.8690187E-2,9.992013E-2,0E0,0E0,0E0],"parents":[2147483647,0,0,1,1],"right_children":[2,4,-1,-1,-1],"split_conditions":[1.75E0,2.65E0,3.8545925E-2,3.543117E-2,-5.422918E-2],"split_indices":[3,1,0,0,0],"split_type":[0,0,0,0,0],"sum_hessian":[4.23783E0,2.7717881E0,1.4660422E0,1.0020726E0,1.7697155E0],"tree_param":{"num_deleted":"0","num_feature":"4","num_nodes":"5","size_leaf_vector":"0"}},{"base_weights":[-3.1947635E-2],"categories":[],"categories_nodes":[],"categories_segments":[],"categories_sizes":[],"default_left":[0],"id":93,"left_children":[-1],"loss_changes":[0E0],"parents":[2147483647],"right_children":[-1],"split_conditions":[-9.584291E-3],"split_indices":[0],"split_type":[0],"sum_hessian":[1.5763797E0],"tree_param":{"num_deleted":"0","num_feature":"4","num_nodes":"1","size_leaf_vector":"0"}},{"base_weights":[4.260437E-3,4.3815415E-2,-7.5298525E-2,-6.70138E-2,9.9575914E-2],"categories":[],"categories_nodes":[],"categories_segments":[],"categories_sizes":[],"default_left":[1,1,0,0,0],"id":94,"left_children":[1,3,-1,-1,-1],"loss_changes":[2.0752082E-2,3.3471603E-2,0E0,0E0,0E0],"parents":[2147483647,0,0,1,1],"right_children":[2,4,-1,-1,-1],"split_conditions":[5.05E0,5.55E0,-2.2589559E-2,-2.010414E-2,2.9872775E-2],"split_indices":[2,0,0,0,0],"split_type":[0,0,0,0,0],"sum_hessian":[4.545951E0,3.3364246E0,1.2095263E0,1.0492089E0,2.2872157E0],"tree_param":{"num_deleted":"0","num_feature":"4","num_nodes":"5","size_leaf_vector":"0"}},{"base_weights":[1.1397468E-2,-1.1851926E-1,9.151443E-2,1.0905531E-1,2.280643E-2],"categories":[],"categories_nodes":[],"categories_segments":[],"categories_sizes":[],"default_left":[1,0,1,0,0],"id":95,"left_children":[1,-1,3,-1,-1],"loss_changes":[6.4436965E-2,0E0,2.031181E-3,0E0,0E0],"parents":[2147483647,0,0,2,2],"right_children":[2,-1,4,-1,-1],"split_conditions":[5.95E0,-3.555578E-2,6.3500004E0,3.2716595E-2,6.841929E-3],"split_indices":[0,0,0,0,0],"split_type":[0,0,0,0,0],"sum_hessian":[4.148731E0,1.399687E0,2.7490442E0,1.722156E0,1.0268883E0],"tree_param":{"num_deleted":"0","num_feature":"4","num_nodes":"5","size_leaf_vector":"0"}},{"base_weights":[-3.0859556E-2],"categories":[],"categories_nodes":[],"categories_segments":[],"categories_sizes":[],"default_left":[0],"id":96,"left_children":[-1],"loss_changes":[0E0],"parents":[2147483647],"right_children":[-1],"split_conditions":[-9.257867E-3],"split_indices":[0],"split_type":[0],"sum_hessian":[1.5559055E0],"tree_param":{"num_deleted":"0","num_feature":"4","num_nodes":"1","size_leaf_vector":"0"}},{"base_weights":[3.4195317E-3,-6.7841314E-2,4.482612E-2,1.2131181E-1,-3.417493E-2],"categories":[],"categories_nodes":[],"categories_segments":[],"categories_sizes":[],"default_left":[1,0,1,0,0],"id":97,"left_children":[1,-1,3,-1,-1],"loss_changes":[1.9281257E-2,0E0,2.8818917E-2,0E0,0E0],"parents":[2147483647,0,0,2,2],"right_children":[2,-1,4,-1,-1],"split_conditions":[5.8500004E0,-2.0352395E-2,4.95E0,3.6393546E-2,-1.0252479E-2],"split_indices":[0,0,2,0,0],"split_type":[0,0,0,0,0],"sum_hessian":[4.5039034E0,1.4206105E0,3.083293E0,1.294468E0,1.7888249E0],"tree_param":{"num_deleted":"0","num_feature":"4","num_nodes":"5","size_leaf_vector":"0"}},{"base_weights":[1.1761349E-2,-1.0858817E-1,8.5621834E-2,1.01246454E-1,2.1829754E-2],"categories":[],"categories_nodes":[],"categories_segments":[],"categories_sizes":[],"default_left":[1,0,1,0,0],"id":98,"left_children":[1,-1,3,-1,-1],"loss_changes":[5.4684214E-2,0E0,1.5008189E-3,0E0,0E0],"parents":[2147483647,0,0,2,2],"right_children":[2,-1,4,-1,-1],"split_conditions":[5.95E0,-3.2576453E-2,6.3500004E0,3.0373937E-2,6.5489267E-3],"split_indices":[0,0,0,0,0],"split_type":[0,0,0,0,0],"sum_hessian":[4.105898E0,1.382709E0,2.7231886E0,1.715804E0,1.0073848E0],"tree_param":{"num_deleted":"0","num_feature":"4","num_nodes":"5","size_leaf_vector":"0"}},{"base_weights":[-3.1258598E-2],"categories":[],"categories_nodes":[],"categories_segments":[],"categories_sizes":[],"default_left":[0],"id":99,"left_children":[-1],"loss_changes":[0E0],"parents":[2147483647],"right_children":[-1],"split_conditions":[-9.37758E-3],"split_indices":[0],"split_type":[0],"sum_hessian":[1.5365509E0],"tree_param":{"num_deleted":"0","num_feature":"4","num_nodes":"1","size_leaf_vector":"0"}},{"base_weights":[4.3875794E-3,4.50143E-2,-7.662956E-2,-6.7121364E-2,1.0200492E-1,-2.809461E-2,1.921286E-1],"categories":[],"categories_nodes":[],"categories_segments":[],"categories_sizes":[],"default_left":[1,1,0,0,1,0,0],"id":100,"left_children":[1,3,-1,-1,5,-1,-1],"loss_changes":[2.144697E-2,3.4145847E-2,0E0,0E0,4.3259587E-2,0E0,0E0],"parents":[2147483647,0,0,1,1,4,4],"right_children":[2,4,-1,-1,6,-1,-1],"split_conditions":[1.75E0,5.55E0,-2.2988867E-2,-2.013641E-2,1.55E0,-8.428384E-3,5.763858E-2],"split_indices":[3,0,0,0,3,0,0],"split_type":[0,0,0,0,0,0,0],"sum_hessian":[4.46795E0,3.2717094E0,1.1962405E0,1.0425701E0,2.2291393E0,1.1939129E0,1.0352265E0],"tree_param":{"num_deleted":"0","num_feature":"4","num_nodes":"7","size_leaf_vector":"0"}},{"base_weights":[1.0904897E-2,-6.517613E-2,1.2349855E-1,-1.2842035E-1,1.1522161E-2],"categories":[],"categories_nodes":[],"categories_segments":[],"categories_sizes":[],"default_left":[1,1,0,0,0],"id":101,"left_children":[1,3,-1,-1,-1],"loss_changes":[5.1487405E-2,1.9333504E-2,0E0,0E0,0E0],"parents":[2147483647,0,0,1,1],"right_children":[2,4,-1,-1,-1],"split_conditions":[1.75E0,4.95E0,3.7049565E-2,-3.8526107E-2,3.4566484E-3],"split_indices":[3,2,0,0,0],"split_type":[0,0,0,0,0],"sum_hessian":[4.0708647E0,2.6806514E0,1.3902134E0,1.0995897E0,1.5810618E0],"tree_param":{"num_deleted":"0","num_feature":"4","num_nodes":"5","size_leaf_vector":"0"}},{"base_weights":[-3.1170351E-2],"categories":[],"categories_nodes":[],"categories_segments":[],"categories_sizes":[],"default_left":[0],"id":102,"left_children":[-1],"loss_changes":[0E0],"parents":[2147483647],"right_children":[-1],"split_conditions":[-9.351105E-3],"split_indices":[0],"split_type":[0],"sum_hessian":[1.514661E0],"tree_param":{"num_deleted":"0","num_feature":"4","num_nodes":"1","size_leaf_vector":"0"}},{"base_weights":[4.877743E-3,-6.752403E-2,4.7186505E-2,1.2235119E-1,-3.1593516E-2],"categories":[],"categories_nodes":[],"categories_segments":[],"categories_sizes":[],"default_left":[1,0,1,0,0],"id":103,"left_children":[1,-1,3,-1,-1],"loss_changes":[1.9739786E-2,0E0,2.7548207E-2,0E0,0E0],"parents":[2147483647,0,0,2,2],"right_children":[2,-1,4,-1,-1],"split_conditions":[5.8500004E0,-2.025721E-2,4.95E0,3.670536E-2,-9.478055E-3],"split_indices":[0,0,2,0,0],"split_type":[0,0,0,0,0],"sum_hessian":[4.403958E0,1.4044982E0,2.9994597E0,1.2519192E0,1.7475406E0],"tree_param":{"num_deleted":"0","num_feature":"4","num_nodes":"5","size_leaf_vector":"0"}},{"base_weights":[1.0413808E-2,-1.0450028E-1,8.2030445E-2],"categories":[],"categories_nodes":[],"categories_segments":[],"categories_sizes":[],"default_left":[1,0,0],"id":104,"left_children":[1,-1,-1],"loss_changes":[4.9684566E-2,0E0,0E0],"parents":[2147483647,0,0],"right_children":[2,-1,-1],"split_conditions":[5.95E0,-3.1350084E-2,2.4609135E-2],"split_indices":[0,0,0],"split_type":[0,0,0],"sum_hessian":[3.9955719E0,1.3577697E0,2.6378021E0],"tree_param":{"num_deleted":"0","num_feature":"4","num_nodes":"3","size_leaf_vector":"0"}},{"base_weights":[-3.1199338E-2],"categories":[],"categories_nodes":[],"categories_segments":[],"categories_sizes":[],"default_left":[0],"id":105,"left_children":[-1],"loss_changes":[0E0],"parents":[2147483647],"right_children":[-1],"split_conditions":[-9.359802E-3],"split_indices":[0],"split_type":[0],"sum_hessian":[1.4947433E0],"tree_param":{"num_deleted":"0","num_feature":"4","num_nodes":"1","size_leaf_vector":"0"}},{"base_weights":[6.3717486E-3,-6.74118E-2,4.94229E-2,9.761989E-2,-4.0317174E-2],"categories":[],"categories_nodes":[],"categories_segments":[],"categories_sizes":[],"default_left":[1,0,1,0,0],"id":106,"left_children":[1,-1,3,-1,-1],"loss_changes":[2.0392679E-2,0E0,2.1102134E-2,0E0,0E0],"parents":[2147483647,0,0,2,2],"right_children":[2,-1,4,-1,-1],"split_conditions":[5.8500004E0,-2.0223541E-2,5.05E0,2.928597E-2,-1.2095152E-2],"split_indices":[0,0,2,0,0],"split_type":[0,0,0,0,0],"sum_hessian":[4.371059E0,1.402139E0,2.96892E0,1.8744149E0,1.0945051E0],"tree_param":{"num_deleted":"0","num_feature":"4","num_nodes":"5","size_leaf_vector":"0"}},{"base_weights":[8.788739E-3,-6.1360482E-2,1.14094846E-1,-1.19541794E-1,9.715978E-3],"categories":[],"categories_nodes":[],"categories_segments":[],"categories_sizes":[],"default_left":[1,1,0,0,0],"id":107,"left_children":[1,3,-1,-1,-1],"loss_changes":[4.3657184E-2,1.6166534E-2,0E0,0E0,0E0],"parents":[2147483647,0,0,1,1],"right_children":[2,4,-1,-1,-1],"split_conditions":[1.75E0,4.95E0,3.4228455E-2,-3.586254E-2,2.9147936E-3],"split_indices":[3,2,0,0,0],"split_type":[0,0,0,0,0],"sum_hessian":[3.9621723E0,2.6285129E0,1.3336596E0,1.0704197E0,1.5580932E0],"tree_param":{"num_deleted":"0","num_feature":"4","num_nodes":"5","size_leaf_vector":"0"}},{"base_weights":[-3.0972999E-2],"categories":[],"categories_nodes":[],"categories_segments":[],"categories_sizes":[],"default_left":[0],"id":108,"left_children":[-1],"loss_changes":[0E0],"parents":[2147483647],"right_children":[-1],"split_conditions":[-9.2919E-3],"split_indices":[0],"split_type":[0],"sum_hessian":[1.4720045E0],"tree_param":{"num_deleted":"0","num_feature":"4","num_nodes":"1","size_leaf_vector":"0"}},{"base_weights":[5.562049E-3,-6.629273E-2,4.7850657E-2,1.105037E-1,-2.0576559E-2],"categories":[],"categories_nodes":[],"categories_segments":[],"categories_sizes":[],"default_left":[1,0,1,0,0],"id":109,"left_children":[1,-1,3,-1,-1],"loss_changes":[1.9346418E-2,0E0,1.9129235E-2,0E0,0E0],"parents":[2147483647,0,0,2,2],"right_children":[2,-1,4,-1,-1],"split_conditions":[5.8500004E0,-1.988782E-2,4.95E0,3.3151112E-2,-6.172968E-3],"split_indices":[0,0,2,0,0],"split_type":[0,0,0,0,0],"sum_hessian":[4.3228655E0,1.3912662E0,2.9315994E0,1.2093713E0,1.722228E0],"tree_param":{"num_deleted":"0","num_feature":"4","num_nodes":"5","size_leaf_vector":"0"}},{"base_weights":[9.567894E-3,1.2662452E-1,-5.4218743E-2,-1.7680538E-1,9.492431E-2],"categories":[],"categories_nodes":[],"categories_segments":[],"categories_sizes":[],"default_left":[1,0,1,0,0],"id":110,"left_children":[1,-1,3,-1,-1],"loss_changes":[4.3512218E-2,0E0,8.766779E-2,0E0,0E0],"parents":[2147483647,0,0,2,2],"right_children":[2,-1,4,-1,-1],"split_conditions":[2.65E0,3.798736E-2,6.05E0,-5.3041615E-2,2.8477294E-2],"split_indices":[1,0,0,0,0],"split_type":[0,0,0,0,0],"sum_hessian":[3.9080648E0,1.0309724E0,2.8770924E0,1.4773359E0,1.3997566E0],"tree_param":{"num_deleted":"0","num_feature":"4","num_nodes":"5","size_leaf_vector":"0"}},{"base_weights":[-3.1455025E-2],"categories":[],"categories_nodes":[],"categories_segments":[],"categories_sizes":[],"default_left":[0],"id":111,"left_children":[-1],"loss_changes":[0E0],"parents":[2147483647],"right_children":[-1],"split_conditions":[-9.436508E-3],"split_indices":[0],"split_type":[0],"sum_hessian":[1.4486083E0],"tree_param":{"num_deleted":"0","num_feature":"4","num_nodes":"1","size_leaf_vector":"0"}},{"base_weights":[5.06064E-3,7.2648175E-2,-4.6322692E-2,-1.2177728E-1,4.599952E-2],"categories":[],"categories_nodes":[],"categories_segments":[],"categories_sizes":[],"default_left":[1,0,1,0,0],"id":112,"left_children":[1,-1,3,-1,-1],"loss_changes":[2.1728143E-2,0E0,3.0780695E-2,0E0,0E0],"parents":[2147483647,0,0,2,2],"right_children":[2,-1,4,-1,-1],"split_conditions":[2.75E0,2.1794453E-2,1.6500001E0,-3.6533184E-2,1.3799856E-2],"split_indices":[1,0,3,0,0],"split_type":[0,0,0,0,0],"sum_hessian":[4.28752E0,1.6730332E0,2.6144867E0,1.2631074E0,1.3513793E0],"tree_param":{"num_deleted":"0","num_feature":"4","num_nodes":"5","size_leaf_vector":"0"}},{"base_weights":[1.0329754E-2,-6.297581E-2,1.19390085E-1,-1.16923794E-1,5.2767145E-3],"categories":[],"categories_nodes":[],"categories_segments":[],"categories_sizes":[],"default_left":[1,1,0,0,0],"id":113,"left_children":[1,3,-1,-1,-1],"loss_changes":[4.641912E-2,1.37419375E-2,0E0,0E0,0E0],"parents":[2147483647,0,0,1,1],"right_children":[2,4,-1,-1,-1],"split_conditions":[1.75E0,4.95E0,3.5817027E-2,-3.507714E-2,1.5830144E-3],"split_indices":[3,2,0,0,0],"split_type":[0,0,0,0,0],"sum_hessian":[3.8657596E0,2.564545E0,1.3012146E0,1.0340825E0,1.5304625E0],"tree_param":{"num_deleted":"0","num_feature":"4","num_nodes":"5","size_leaf_vector":"0"}},{"base_weights":[-3.2454208E-2],"categories":[],"categories_nodes":[],"categories_segments":[],"categories_sizes":[],"default_left":[0],"id":114,"left_children":[-1],"loss_changes":[0E0],"parents":[2147483647],"right_children":[-1],"split_conditions":[-9.736262E-3],"split_indices":[0],"split_type":[0],"sum_hessian":[1.4187372E0],"tree_param":{"num_deleted":"0","num_feature":"4","num_nodes":"1","size_leaf_vector":"0"}},{"base_weights":[4.669333E-3,4.256771E-2,-7.111046E-2,-6.581136E-2,9.9203885E-2],"categories":[],"categories_nodes":[],"categories_segments":[],"categories_sizes":[],"default_left":[1,1,0,0,0],"id":115,"left_children":[1,3,-1,-1,-1],"loss_changes":[1.8077705E-2,3.181205E-2,0E0,0E0,0E0],"parents":[2147483647,0,0,1,1],"right_children":[2,4,-1,-1,-1],"split_conditions":[1.75E0,5.55E0,-2.1333138E-2,-1.9743409E-2,2.9761167E-2],"split_indices":[3,0,0,0,0],"split_type":[0,0,0,0,0],"sum_hessian":[4.240618E0,3.119027E0,1.1215917E0,1.0149035E0,2.1041234E0],"tree_param":{"num_deleted":"0","num_feature":"4","num_nodes":"5","size_leaf_vector":"0"}},{"base_weights":[1.1206474E-2,1.2500384E-1,-5.194046E-2,-1.6386487E-1,1.01908155E-1],"categories":[],"categories_nodes":[],"categories_segments":[],"categories_sizes":[],"default_left":[1,0,1,0,0],"id":116,"left_children":[1,-1,3,-1,-1],"loss_changes":[4.113621E-2,0E0,8.225285E-2,0E0,0E0],"parents":[2147483647,0,0,2,2],"right_children":[2,-1,4,-1,-1],"split_conditions":[2.65E0,3.7501156E-2,1.75E0,-4.9159463E-2,3.0572448E-2],"split_indices":[1,0,3,0,0],"split_type":[0,0,0,0,0],"sum_hessian":[3.8209956E0,1.0140324E0,2.8069632E0,1.5871857E0,1.2197775E0],"tree_param":{"num_deleted":"0","num_feature":"4","num_nodes":"5","size_leaf_vector":"0"}},{"base_weights":[-3.084213E-2],"categories":[],"categories_nodes":[],"categories_segments":[],"categories_sizes":[],"default_left":[0],"id":117,"left_children":[-1],"loss_changes":[0E0],"parents":[2147483647],"right_children":[-1],"split_conditions":[-9.2526395E-3],"split_indices":[0],"split_type":[0],"sum_hessian":[1.3955914E0],"tree_param":{"num_deleted":"0","num_feature":"4","num_nodes":"1","size_leaf_vector":"0"}},{"base_weights":[2.0427778E-3,6.357656E-2,-4.4149958E-2,-1.2751523E-1,5.6118917E-2],"categories":[],"categories_nodes":[],"categories_segments":[],"categories_sizes":[],"default_left":[1,0,1,0,0],"id":118,"left_children":[1,-1,3,-1,-1],"loss_changes":[1.7552113E-2,0E0,3.6858045E-2,0E0,0E0],"parents":[2147483647,0,0,2,2],"right_children":[2,-1,4,-1,-1],"split_conditions":[2.75E0,1.9072969E-2,1.6500001E0,-3.825457E-2,1.6835677E-2],"split_indices":[1,0,3,0,0],"split_type":[0,0,0,0,0],"sum_hessian":[4.1875677E0,1.6342437E0,2.5533237E0,1.2458061E0,1.3075176E0],"tree_param":{"num_deleted":"0","num_feature":"4","num_nodes":"5","size_leaf_vector":"0"}},{"base_weights":[1.3295411E-2,-9.983853E-2,8.3955504E-2],"categories":[],"categories_nodes":[],"categories_segments":[],"categories_sizes":[],"default_left":[1,0,0],"id":119,"left_children":[1,-1,-1],"loss_changes":[4.6435148E-2,0E0,0E0],"parents":[2147483647,0,0],"right_children":[2,-1,-1],"split_conditions":[5.95E0,-2.9951561E-2,2.5186652E-2],"split_indices":[0,0,0],"split_type":[0,0,0],"sum_hessian":[3.7601817E0,1.2868553E0,2.4733264E0],"tree_param":{"num_deleted":"0","num_feature":"4","num_nodes":"3","size_leaf_vector":"0"}},{"base_weights":[-3.26055E-2],"categories":[],"categories_nodes":[],"categories_segments":[],"categories_sizes":[],"default_left":[0],"id":120,"left_children":[-1],"loss_changes":[0E0],"parents":[2147483647],"right_children":[-1],"split_conditions":[-9.78165E-3],"split_indices":[0],"split_type":[0],"sum_hessian":[1.370752E0],"tree_param":{"num_deleted":"0","num_feature":"4","num_nodes":"1","size_leaf_vector":"0"}},{"base_weights":[3.2102878E-3,-6.403196E-2,4.3659966E-2,1.06080174E-1,-2.419479E-2],"categories":[],"categories_nodes":[],"categories_segments":[],"categories_sizes":[],"default_left":[1,0,1,0,0],"id":121,"left_children":[1,-1,3,-1,-1],"loss_changes":[1.6823724E-2,0E0,1.8724691E-2,0E0,0E0],"parents":[2147483647,0,0,2,2],"right_children":[2,-1,4,-1,-1],"split_conditions":[5.8500004E0,-1.9209588E-2,4.95E0,3.1824052E-2,-7.258437E-3],"split_indices":[0,0,2,0,0],"split_type":[0,0,0,0,0],"sum_hessian":[4.157524E0,1.3426099E0,2.8149145E0,1.1727495E0,1.6421648E0],"tree_param":{"num_deleted":"0","num_feature":"4","num_nodes":"5","size_leaf_vector":"0"}},{"base_weights":[1.282389E-2,1.21717036E-1,-4.9203273E-2,-1.5910117E-1,8.591326E-2],"categories":[],"categories_nodes":[],"categories_segments":[],"categories_sizes":[],"default_left":[1,0,1,0,0],"id":122,"left_children":[1,-1,3,-1,-1],"loss_changes":[3.7981488E-2,0E0,6.9053E-2,0E0,0E0],"parents":[2147483647,0,0,2,2],"right_children":[2,-1,4,-1,-1],"split_conditions":[2.65E0,3.6515113E-2,6.05E0,-4.7730353E-2,2.577398E-2],"split_indices":[1,0,0,0,0],"split_type":[0,0,0,0,0],"sum_hessian":[3.736606E0,1.006792E0,2.7298138E0,1.4075023E0,1.3223116E0],"tree_param":{"num_deleted":"0","num_feature":"4","num_nodes":"5","size_leaf_vector":"0"}},{"base_weights":[-3.273894E-2],"categories":[],"categories_nodes":[],"categories_segments":[],"categories_sizes":[],"default_left":[0],"id":123,"left_children":[-1],"loss_changes":[0E0],"parents":[2147483647],"right_children":[-1],"split_conditions":[-9.821682E-3],"split_indices":[0],"split_type":[0],"sum_hessian":[1.3510183E0],"tree_param":{"num_deleted":"0","num_feature":"4","num_nodes":"1","size_leaf_vector":"0"}},{"base_weights":[3.071168E-3,4.240442E-2,-7.439429E-2,-4.0312413E-2,8.512702E-2],"categories":[],"categories_nodes":[],"categories_segments":[],"categories_sizes":[],"default_left":[1,1,0,0,0],"id":124,"left_children":[1,3,-1,-1,-1],"loss_changes":[1.8771864E-2,1.7695725E-2,0E0,0E0,0E0],"parents":[2147483647,0,0,1,1],"right_children":[2,4,-1,-1,-1],"split_conditions":[1.75E0,5.6499996E0,-2.2318289E-2,-1.2093725E-2,2.5538107E-2],"split_indices":[3,0,0,0,0],"split_type":[0,0,0,0,0],"sum_hessian":[4.125494E0,3.036372E0,1.089122E0,1.0533521E0,1.9830198E0],"tree_param":{"num_deleted":"0","num_feature":"4","num_nodes":"5","size_leaf_vector":"0"}},{"base_weights":[1.3027768E-2,-5.6297127E-2,1.1439888E-1,-1.8471664E-2,-6.941373E-2],"categories":[],"categories_nodes":[],"categories_segments":[],"categories_sizes":[],"default_left":[1,1,0,0,0],"id":125,"left_children":[1,3,-1,-1,-1],"loss_changes":[3.946853E-2,4.350925E-4,0E0,0E0,0E0],"parents":[2147483647,0,0,1,1],"right_children":[2,4,-1,-1,-1],"split_conditions":[1.75E0,1.55E0,3.4319665E-2,-5.5414992E-3,-2.082412E-2],"split_indices":[3,3,0,0,0],"split_type":[0,0,0,0,0],"sum_hessian":[3.6998231E0,2.4612713E0,1.2385519E0,1.2538121E0,1.2074591E0],"tree_param":{"num_deleted":"0","num_feature":"4","num_nodes":"5","size_leaf_vector":"0"}},{"base_weights":[-2.9481083E-2],"categories":[],"categories_nodes":[],"categories_segments":[],"categories_sizes":[],"default_left":[0],"id":126,"left_children":[-1],"loss_changes":[0E0],"parents":[2147483647],"right_children":[-1],"split_conditions":[-8.844325E-3],"split_indices":[0],"split_type":[0],"sum_hessian":[1.3399512E0],"tree_param":{"num_deleted":"0","num_feature":"4","num_nodes":"1","size_leaf_vector":"0"}},{"base_weights":[1.5483081E-3,5.8514465E-2,-4.1420635E-2,-1.21098794E-1,5.4165747E-2],"categories":[],"categories_nodes":[],"categories_segments":[],"categories_sizes":[],"default_left":[1,0,1,0,0],"id":127,"left_children":[1,-1,3,-1,-1],"loss_changes":[1.4888282E-2,0E0,3.3126377E-2,0E0,0E0],"parents":[2147483647,0,0,2,2],"right_children":[2,-1,4,-1,-1],"split_conditions":[2.75E0,1.755434E-2,1.6500001E0,-3.632964E-2,1.6249726E-2],"split_indices":[1,0,3,0,0],"split_type":[0,0,0,0,0],"sum_hessian":[4.0922055E0,1.6039633E0,2.4882424E0,1.2114811E0,1.2767613E0],"tree_param":{"num_deleted":"0","num_feature":"4","num_nodes":"5","size_leaf_vector":"0"}},{"base_weights":[1.3101578E-2,-9.287425E-2,7.987526E-2],"categories":[],"categories_nodes":[],"categories_segments":[],"categories_sizes":[],"default_left":[1,0,0],"id":128,"left_children":[1,-1,-1],"loss_changes":[4.041895E-2,0E0,0E0],"parents":[2147483647,0,0],"right_children":[2,-1,-1],"split_conditions":[5.95E0,-2.7862277E-2,2.396258E-2],"split_indices":[0,0,0],"split_type":[0,0,0],"sum_hessian":[3.6634746E0,1.264971E0,2.3985035E0],"tree_param":{"num_deleted":"0","num_feature":"4","num_nodes":"3","size_leaf_vector":"0"}},{"base_weights":[-3.1176867E-2],"categories":[],"categories_nodes":[],"categories_segments":[],"categories_sizes":[],"default_left":[0],"id":129,"left_children":[-1],"loss_changes":[0E0],"parents":[2147483647],"right_children":[-1],"split_conditions":[-9.35306E-3],"split_indices":[0],"split_type":[0],"sum_hessian":[1.3177675E0],"tree_param":{"num_deleted":"0","num_feature":"4","num_nodes":"1","size_leaf_vector":"0"}},{"base_weights":[2.7012287E-3,-6.200864E-2,4.2233735E-2,1.0118081E-1,-2.2948474E-2],"categories":[],"categories_nodes":[],"categories_segments":[],"categories_sizes":[],"default_left":[1,0,1,0,0],"id":130,"left_children":[1,-1,3,-1,-1],"loss_changes":[1.55760385E-2,0E0,1.6688544E-2,0E0,0E0],"parents":[2147483647,0,0,2,2],"right_children":[2,-1,4,-1,-1],"split_conditions":[5.8500004E0,-1.8602593E-2,4.95E0,3.0354243E-2,-6.8845423E-3],"split_indices":[0,0,2,0,0],"split_type":[0,0,0,0,0],"sum_hessian":[4.065072E0,1.3260092E0,2.7390628E0,1.1483154E0,1.5907472E0],"tree_param":{"num_deleted":"0","num_feature":"4","num_nodes":"5","size_leaf_vector":"0"}},{"base_weights":[1.2617793E-2,-8.2671545E-2,7.247701E-2],"categories":[],"categories_nodes":[],"categories_segments":[],"categories_sizes":[],"default_left":[1,0,0],"id":131,"left_children":[1,-1,-1],"loss_changes":[3.2472804E-2,0E0,0E0],"parents":[2147483647,0,0],"right_children":[2,-1,-1],"split_conditions":[5.95E0,-2.4801465E-2,2.1743104E-2],"split_indices":[0,0,0],"split_type":[0,0,0],"sum_hessian":[3.6425786E0,1.2583396E0,2.384239E0],"tree_param":{"num_deleted":"0","num_feature":"4","num_nodes":"3","size_leaf_vector":"0"}},{"base_weights":[-3.114022E-2],"categories":[],"categories_nodes":[],"categories_segments":[],"categories_sizes":[],"default_left":[0],"id":132,"left_children":[-1],"loss_changes":[0E0],"parents":[2147483647],"right_children":[-1],"split_conditions":[-9.342066E-3],"split_indices":[0],"split_type":[0],"sum_hessian":[1.3041149E0],"tree_param":{"num_deleted":"0","num_feature":"4","num_nodes":"1","size_leaf_vector":"0"}},{"base_weights":[4.2500473E-3,4.156814E-2,-7.055588E-2,-4.3167464E-2,8.6043626E-2],"categories":[],"categories_nodes":[],"categories_segments":[],"categories_sizes":[],"default_left":[1,1,0,0,0],"id":133,"left_children":[1,3,-1,-1,-1],"loss_changes":[1.7005682E-2,1.8760808E-2,0E0,0E0,0E0],"parents":[2147483647,0,0,1,1],"right_children":[2,4,-1,-1,-1],"split_conditions":[1.75E0,5.6499996E0,-2.1166764E-2,-1.295024E-2,2.581309E-2],"split_indices":[3,0,0,0,0],"split_type":[0,0,0,0,0],"sum_hessian":[4.041099E0,2.992543E0,1.048556E0,1.0401801E0,1.9523628E0],"tree_param":{"num_deleted":"0","num_feature":"4","num_nodes":"5","size_leaf_vector":"0"}},{"base_weights":[1.0895595E-2,-5.4753214E-2,1.08985774E-1,-1.8130768E-2,-6.68786E-2],"categories":[],"categories_nodes":[],"categories_segments":[],"categories_sizes":[],"default_left":[1,1,0,0,0],"id":134,"left_children":[1,3,-1,-1,-1],"loss_changes":[3.5711244E-2,3.1175558E-4,0E0,0E0,0E0],"parents":[2147483647,0,0,1,1],"right_children":[2,4,-1,-1,-1],"split_conditions":[1.75E0,1.55E0,3.2695733E-2,-5.4392307E-3,-2.0063581E-2],"split_indices":[3,3,0,0,0],"split_type":[0,0,0,0,0],"sum_hessian":[3.6189775E0,2.4326713E0,1.1863064E0,1.2257618E0,1.2069094E0],"tree_param":{"num_deleted":"0","num_feature":"4","num_nodes":"5","size_leaf_vector":"0"}},{"base_weights":[-2.8250635E-2],"categories":[],"categories_nodes":[],"categories_segments":[],"categories_sizes":[],"default_left":[0],"id":135,"left_children":[-1],"loss_changes":[0E0],"parents":[2147483647],"right_children":[-1],"split_conditions":[-8.475191E-3],"split_indices":[0],"split_type":[0],"sum_hessian":[1.2940464E0],"tree_param":{"num_deleted":"0","num_feature":"4","num_nodes":"1","size_leaf_vector":"0"}},{"base_weights":[2.476739E-3,-6.094581E-2,4.168338E-2,1.0204683E-1,-2.4086434E-2],"categories":[],"categories_nodes":[],"categories_segments":[],"categories_sizes":[],"default_left":[1,0,1,0,0],"id":136,"left_children":[1,-1,3,-1,-1],"loss_changes":[1.4998777E-2,0E0,1.7107796E-2,0E0,0E0],"parents":[2147483647,0,0,2,2],"right_children":[2,-1,4,-1,-1],"split_conditions":[5.8500004E0,-1.8283743E-2,4.95E0,3.061405E-2,-7.2259307E-3],"split_indices":[0,0,2,0,0],"split_type":[0,0,0,0,0],"sum_hessian":[4.010225E0,1.3201729E0,2.6900518E0,1.1150681E0,1.5749837E0],"tree_param":{"num_deleted":"0","num_feature":"4","num_nodes":"5","size_leaf_vector":"0"}},{"base_weights":[1.1426805E-2,-8.3083965E-2,7.174708E-2],"categories":[],"categories_nodes":[],"categories_segments":[],"categories_sizes":[],"default_left":[1,0,0],"id":137,"left_children":[1,-1,-1],"loss_changes":[3.210367E-2,0E0,0E0],"parents":[2147483647,0,0],"right_children":[2,-1,-1],"split_conditions":[5.95E0,-2.4925191E-2,2.1524124E-2],"split_indices":[0,0,0],"split_type":[0,0,0],"sum_hessian":[3.5856912E0,1.2499183E0,2.3357728E0],"tree_param":{"num_deleted":"0","num_feature":"4","num_nodes":"3","size_leaf_vector":"0"}},{"base_weights":[-2.852851E-2],"categories":[],"categories_nodes":[],"categories_segments":[],"categories_sizes":[],"default_left":[0],"id":138,"left_children":[-1],"loss_changes":[0E0],"parents":[2147483647],"right_children":[-1],"split_conditions":[-8.558554E-3],"split_indices":[0],"split_type":[0],"sum_hessian":[1.2812647E0],"tree_param":{"num_deleted":"0","num_feature":"4","num_nodes":"1","size_leaf_vector":"0"}},{"base_weights":[4.0608044E-3,-6.0433697E-2,4.371963E-2,9.572114E-2,-1.587685E-2],"categories":[],"categories_nodes":[],"categories_segments":[],"categories_sizes":[],"default_left":[1,0,1,0,0],"id":139,"left_children":[1,-1,3,-1,-1],"loss_changes":[1.5397163E-2,0E0,1.2887813E-2,0E0,0E0],"parents":[2147483647,0,0,2,2],"right_children":[2,-1,4,-1,-1],"split_conditions":[5.8500004E0,-1.813011E-2,4.95E0,2.8716343E-2,-4.763055E-3],"split_indices":[0,0,2,0,0],"split_type":[0,0,0,0,0],"sum_hessian":[3.9867632E0,1.3185894E0,2.6681738E0,1.1011767E0,1.5669972E0],"tree_param":{"num_deleted":"0","num_feature":"4","num_nodes":"5","size_leaf_vector":"0"}},{"base_weights":[9.825725E-3,-5.018562E-2,1.0078789E-1,-1.5292169E-2,-6.2433243E-2],"categories":[],"categories_nodes":[],"categories_segments":[],"categories_sizes":[],"default_left":[1,1,0,0,0],"id":140,"left_children":[1,3,-1,-1,-1],"loss_changes":[2.9964283E-2,5.053738E-4,0E0,0E0,0E0],"parents":[2147483647,0,0,1,1],"right_children":[2,4,-1,-1,-1],"split_conditions":[1.75E0,1.55E0,3.0236369E-2,-4.5876508E-3,-1.8729974E-2],"split_indices":[3,3,0,0,0],"split_type":[0,0,0,0,0],"sum_hessian":[3.5626059E0,2.4165754E0,1.1460303E0,1.2120447E0,1.2045307E0],"tree_param":{"num_deleted":"0","num_feature":"4","num_nodes":"5","size_leaf_vector":"0"}},{"base_weights":[-2.7792992E-2],"categories":[],"categories_nodes":[],"categories_segments":[],"categories_sizes":[],"default_left":[0],"id":141,"left_children":[-1],"loss_changes":[0E0],"parents":[2147483647],"right_children":[-1],"split_conditions":[-8.337898E-3],"split_indices":[0],"split_type":[0],"sum_hessian":[1.2705754E0],"tree_param":{"num_deleted":"0","num_feature":"4","num_nodes":"1","size_leaf_vector":"0"}},{"base_weights":[3.7372182E-3,-5.711018E-2,4.1342523E-2,9.33296E-2,-1.7245859E-2],"categories":[],"categories_nodes":[],"categories_segments":[],"categories_sizes":[],"default_left":[1,0,1,0,0],"id":142,"left_children":[1,-1,3,-1,-1],"loss_changes":[1.3715258E-2,0E0,1.271721E-2,0E0,0E0],"parents":[2147483647,0,0,2,2],"right_children":[2,-1,4,-1,-1],"split_conditions":[5.8500004E0,-1.7133055E-2,4.95E0,2.7998881E-2,-5.1737577E-3],"split_indices":[0,0,2,0,0],"split_type":[0,0,0,0,0],"sum_hessian":[3.96209E0,1.3152583E0,2.6468318E0,1.0882375E0,1.5585942E0],"tree_param":{"num_deleted":"0","num_feature":"4","num_nodes":"5","size_leaf_vector":"0"}},{"base_weights":[9.8178135E-3,-8.036938E-2,6.7864686E-2],"categories":[],"categories_nodes":[],"categories_segments":[],"categories_sizes":[],"default_left":[1,0,0],"id":143,"left_children":[1,-1,-1],"loss_changes":[2.9215112E-2,0E0,0E0],"parents":[2147483647,0,0],"right_children":[2,-1,-1],"split_conditions":[5.95E0,-2.4110816E-2,2.0359406E-2],"split_indices":[0,0,0],"split_type":[0,0,0],"sum_hessian":[3.538775E0,1.2351567E0,2.3036182E0],"tree_param":{"num_deleted":"0","num_feature":"4","num_nodes":"3","size_leaf_vector":"0"}},{"base_weights":[-2.8073603E-2],"categories":[],"categories_nodes":[],"categories_segments":[],"categories_sizes":[],"default_left":[0],"id":144,"left_children":[-1],"loss_changes":[0E0],"parents":[2147483647],"right_children":[-1],"split_conditions":[-8.422081E-3],"split_indices":[0],"split_type":[0],"sum_hessian":[1.2591335E0],"tree_param":{"num_deleted":"0","num_feature":"4","num_nodes":"1","size_leaf_vector":"0"}},{"base_weights":[5.0431937E-3,-5.678748E-2,4.3095045E-2,8.7608114E-2,-9.995668E-3],"categories":[],"categories_nodes":[],"categories_segments":[],"categories_sizes":[],"default_left":[1,0,1,0,0],"id":145,"left_children":[1,-1,3,-1,-1],"loss_changes":[1.4073002E-2,0E0,9.448022E-3,0E0,0E0],"parents":[2147483647,0,0,2,2],"right_children":[2,-1,4,-1,-1],"split_conditions":[5.8500004E0,-1.7036244E-2,4.95E0,2.6282435E-2,-2.9987006E-3],"split_indices":[0,0,2,0,0],"split_type":[0,0,0,0,0],"sum_hessian":[3.941297E0,1.3139237E0,2.6273732E0,1.0754882E0,1.5518851E0],"tree_param":{"num_deleted":"0","num_feature":"4","num_nodes":"5","size_leaf_vector":"0"}},{"base_weights":[8.521698E-3,-5.1993042E-2,1.01631306E-1,-1.6290996E-2,-6.38971E-2],"categories":[],